0,1,2,3,4,5,6,7,8,9,10,11,12,13,14,15,16,17,18,19,20,21,22,23,24,25,26,27,28,29,30,31,32,33,34,35,36,37,38,39,40,41,42,43,44,45,46,47,48,49,50,51,52,53,54,55,56,57,58,59,60,61,62,63,64,65,66,67,68,69,70,71,72,73,74,75,76,77,78,79,80,81,82,83,84,85,86,87,88,89,90,91,92,93,94,95,96,97,98,99
-0.58167195,0.5064537,0.26038298,0.47450423,0.13002013,-0.7621263,0.2718734,0.9222161,-0.03879309,-0.69952244,-0.39461195,-0.5085738,0.33754355,0.54919726,0.21559334,-0.83277893,0.008594841,-0.1973653,-0.007728635,-0.49630848,0.43208382,0.11892429,0.29920596,0.38762605,0.21722558,-0.23590167,-0.38287142,-0.09859103,0.10968463,0.42887422,0.2357995,-0.06837067,-0.1448964,-0.47433072,0.16787404,0.993427,0.22816283,-0.5202092,0.15890111,-0.42131034,-0.16673875,-0.5233338,-0.06935713,-0.16279273,0.33230317,0.14814925,-0.43306747,0.18534087,0.4297199,0.21737066,0.16146632,-0.32137093,-0.29907212,-0.035690535,-0.61640906,0.63716596,0.14233755,-0.33744946,0.10057541,0.14513445,0.2160108,-0.08328273,0.12327872,-0.08398905,-0.5000979,0.18200985,0.08654136,0.72599,-0.39354506,0.86389506,0.14662275,0.1644773,0.32547235,0.0906698,0.30482373,0.04247792,0.07927162,-0.16574825,-0.41076553,-0.21009369,-0.21753442,-0.10492665,0.037804235,0.3111235,-0.032197032,0.07030146,-0.18313138,-0.17364238,0.39222825,0.111083366,0.79149,-0.28769308,-0.20471416,0.013216943,0.13487674,0.59748924,0.23300028,-0.47127685,-0.59122634,0.29879844
-0.16020413,0.2882154,-0.017647877,0.1350807,0.00057281816,-0.8907863,-0.19090627,0.8005002,0.0427031,-0.55177385,-0.1588421,-0.68375766,-0.24572937,0.07950318,0.24952407,-0.5398266,0.17942137,-0.51695335,0.18661289,-0.586774,-0.15495312,0.048016854,0.45895052,-0.11967174,0.20840064,0.05314488,-0.48123294,0.00018137794,-0.09530087,0.18023479,0.3197998,0.09231745,0.021161823,-0.39806286,-0.27829427,0.08063004,-0.17940111,-0.2846985,0.0064176107,-0.5089182,-0.24656442,-0.25494584,0.1908348,-0.4066366,0.09606336,-0.01440434,-0.44868606,0.16249874,0.20879818,0.30968672,0.17483915,-0.27855885,-0.07427933,-0.08516094,0.041926425,0.23633832,0.19203432,-0.44816124,-0.14815213,0.5105909,0.07757416,0.3727999,-0.069874324,0.00044625244,-0.16021435,0.48063943,-0.060987793,0.27077028,-0.3357693,0.3377039,-0.057872284,0.052281372,0.3642312,-0.08361868,0.5890263,0.06512848,-0.02151592,-0.026500843,-0.21745983,-0.06331789,-0.16160826,0.2526601,-0.4362203,0.5364454,-0.06304986,0.0918701,0.01970379,0.23712765,0.28437304,0.19398227,0.8871516,-0.18988717,0.05401331,-0.0963802,0.60181373,0.37861043,0.08010091,-0.45998916,-0.23898302,-0.06946531
-0.5439043,0.22823068,0.3868491,0.076920025,-0.06235079,-0.20632094,0.32961333,0.7961249,-0.41952142,-0.12521249,-0.34126744,-0.06899276,-0.2567513,0.87000203,0.63183594,-0.38732824,-0.6478303,-0.031425998,-0.22771235,-0.5149912,0.7647812,0.112029046,0.15643023,0.3980585,-0.16214761,-0.42320976,-0.56092286,-0.7037937,0.29360977,0.81228954,0.17817852,-0.039353028,0.0405659,-0.366743,0.6855393,1.3646038,0.31550688,-0.120946996,0.40763313,-1.0192292,0.036918245,-0.44647402,-0.06799687,0.99316853,-0.004328408,-0.31414506,-0.37688434,0.5569768,0.77874774,-0.014314001,0.13483527,-0.09319606,0.096782066,-0.33867368,-0.3429747,0.47187367,0.06495248,-0.53173196,0.093605325,-0.13513274,-0.03969046,0.33367577,-0.14300513,-0.40631294,-0.83879524,0.13061956,0.5312679,1.380487,-0.7609049,1.0603255,-0.44505256,-0.15691762,0.10225631,0.035004873,0.02862063,0.72693276,-0.27610394,0.024218043,-0.2130555,0.18686275,0.04169244,-0.22050408,0.030364927,0.72494733,0.33961436,0.15683235,-0.5770172,0.00045185376,0.47679,0.49094766,0.7841842,0.009198795,0.038002808,-0.21060106,0.2648948,0.7202934,0.21621428,-0.63346326,-0.061125994,0.18051918
0.2699465,0.06688243,-0.18379301,0.2063827,0.016098496,-0.6613369,0.27320302,0.6633394,-0.41969872,-0.34056762,-0.37884516,-0.40594414,0.1028012,0.42943197,0.13511676,-0.3408385,0.2902129,-0.51115054,0.2259318,-0.5726136,0.1325111,0.23218077,0.25476578,-0.007617393,-0.15419888,-0.12972689,-0.2581452,-0.34713098,-0.5464005,0.060247347,0.5940082,-0.13887678,0.5136593,-0.79187375,-0.18717249,0.66915375,-0.1274643,-0.26220274,-0.51816744,-0.40104404,-0.13834655,-0.45913437,0.030375212,0.064238936,0.05248161,0.057974722,-0.14173925,-0.14124647,0.03762103,0.20258124,-0.0074562426,-0.34900603,-0.32372344,0.03421389,0.04632134,0.26045516,-0.20358887,-0.324314,-0.2156583,-0.16047059,0.6371518,0.06673563,-0.050821662,0.20354801,0.11248915,0.43978631,-0.16566487,0.014469214,-0.40034813,0.24722897,0.17843688,0.0808505,0.19517715,0.022539277,0.8586169,0.09659164,-0.31240237,0.22249843,-0.18003692,0.153413,0.008114451,-0.08704082,-0.5308618,0.3219751,-0.12246203,-0.10578286,0.45023102,0.15472087,0.29616824,0.027678093,0.71742696,0.16753812,-0.19561277,0.18229094,0.40509292,0.13631931,-0.11240611,-0.38144946,-0.21081288,-0.14393881
0.103223085,-0.3995071,-0.17513543,0.06667096,-0.5779801,-0.5462005,0.5202014,0.6412763,-0.86284673,-0.27471903,-0.61723065,0.069842875,-0.4015428,0.5533589,0.026125815,-0.030807288,0.29578978,-0.48189044,0.067933016,-0.33788082,0.15878512,0.48601112,0.14350912,0.17626113,-0.20670222,-0.3518211,-0.21763502,-1.0516435,-0.9285132,0.59555006,0.96018547,-0.3925075,0.41041532,-1.2617096,-0.02964915,1.3637198,-0.22542465,-0.07620153,-0.4681821,-0.6627981,0.20844992,-0.668571,-0.18679212,0.597166,-0.023477636,-0.13453117,-0.027868094,-0.039953,-0.0678824,0.13676786,0.13968986,-0.33618894,-0.08406445,0.07695362,-0.062080033,-0.025985729,-0.4377327,-0.54365796,-0.27149504,-0.9971725,0.8856959,0.1879574,0.022014922,-0.14588939,0.068165176,0.42090005,-0.116070695,0.24501114,-0.7487414,-0.12532325,0.2837236,0.38474783,0.29729924,0.16152631,0.7628864,0.79769456,-0.8134457,0.68318015,-0.29998553,0.6764409,0.27553052,-0.43285006,0.03319364,0.4305059,0.37455422,-0.31139764,0.25472462,0.39273536,0.21617635,-0.08577736,0.80217695,0.44153184,-0.2713356,0.08485065,0.49777338,0.13668573,-0.14111829,-0.27064827,-0.0059231557,-0.19728158
0.3253881,0.06947139,-0.30074105,-0.055155154,0.75944865,-0.73447484,0.11292087,0.70948124,-0.33533898,-0.55187,0.04447748,-0.22967906,0.29859346,0.096541114,0.10290318,-0.38322195,1.0215224,-0.72343713,-0.06348671,-1.1035776,0.4392071,0.12820722,0.3955997,-0.71841776,0.29342756,-0.11070221,0.33620435,-0.17709942,-0.2962113,-0.07096113,0.43794513,0.17757782,0.05093632,-0.80699915,-0.38002104,-0.13341202,-0.3134311,-0.486123,-0.252354,-0.11068626,0.32146263,-0.52924645,0.267221,-0.75859636,0.026271714,-0.28979343,-0.15286253,-0.14233686,-0.1375721,0.5087638,0.16049443,-0.5172818,-0.68321097,0.050966367,-0.18656611,0.24348755,0.38977912,0.3997824,-0.7409903,0.2737643,0.55538476,0.2917751,-0.090359144,0.20575655,-0.30853066,0.7248663,0.13464539,-0.394268,-0.2842389,0.5530594,0.23933923,-0.017487107,0.09191728,-0.23821746,0.9612805,-0.41826114,0.55914915,0.543941,-0.3922899,-0.09870408,-0.12850186,0.1680565,-0.5360434,0.46821868,-0.5038238,0.43342,0.2177031,0.48809388,-0.030857196,0.018927379,0.93140817,0.10383848,-0.118087254,0.34672892,0.3278936,0.14026573,0.17389934,-0.5767526,-0.08195025,0.33519885
-0.046669643,0.43135178,-0.13489062,0.21139476,0.24360308,-0.9653574,-0.06765174,0.9337688,-0.13270439,-0.64838505,-0.15440024,-0.7076544,0.04558847,0.17433958,0.18436378,-0.66924375,0.4588977,-0.5369371,0.07164005,-0.64190906,-0.10749221,0.04876263,0.5219169,0.07217622,0.13903724,0.039047725,-0.31019548,-0.058465283,-0.06230413,0.060251735,0.40513578,-0.0899347,0.2507034,-0.62757105,-0.29567987,0.11249487,-0.12363564,-0.41814345,-0.095499374,-0.26969594,-0.1598107,-0.47233325,0.19782746,-0.5871442,0.14541666,0.082247846,-0.45405495,0.067221515,0.16585147,0.36211643,0.0017289806,-0.32871714,-0.29499948,-0.038538832,-0.15593041,0.2695506,0.250953,-0.32817397,-0.118529916,0.43223596,0.30030116,0.18486844,0.005933643,0.25585985,-0.12198791,0.6289945,-0.063695975,0.114075385,-0.25112993,0.43717563,0.21359499,-0.047221348,0.2912352,-0.095877804,0.7580626,-0.2252049,0.25174975,0.0020587216,-0.18472913,-0.061767474,-0.16388194,0.028982727,-0.48305577,0.28418002,-0.3086162,0.0325869,0.18245578,0.20145948,0.3235374,0.17213766,0.8312099,-0.2464933,-0.026045535,0.025158895,0.3387124,0.3242558,0.004491475,-0.42960015,-0.42904627,0.10519035
0.09051069,0.16790086,-0.099013515,0.2385731,-0.032164082,-0.9668644,-0.10421333,0.77126336,-0.18783826,-0.6005697,-0.21777487,-0.8714255,-0.15888712,0.12934153,0.09856622,-0.47492748,0.23008819,-0.72158384,0.30649814,-0.51774955,-0.3101587,0.1846582,0.40617973,-0.06918615,-0.057406783,0.16685961,-0.46236187,-0.116073936,-0.33468583,0.008203989,0.41978484,0.0023449687,0.36842835,-0.46226758,-0.36421147,0.2703787,-0.33661878,-0.41955417,-0.40980607,-0.5929836,-0.2520641,-0.34114495,0.06204549,-0.358885,0.07505039,0.14292362,-0.43164676,-0.058072846,0.17272787,0.30627406,0.033694413,-0.32396397,-0.14940993,0.070795566,0.13341512,0.1800414,0.041774437,-0.50448066,-0.18879977,0.4459023,0.2639915,0.3397761,-0.13178433,0.1271283,0.23949808,0.58538395,-0.2486324,0.0014714418,-0.21709307,0.1049513,0.0947414,0.045181897,0.36702833,-0.062357888,0.86722165,-0.01667364,-0.18122135,-0.0809295,-0.03032207,0.0022360738,-0.097450845,0.17354432,-0.6085543,0.36632314,-0.2508813,-0.003515346,0.44033596,0.32038882,0.39732412,0.20235878,0.7651286,-0.013955828,-0.077833466,0.013671364,0.64037657,0.3138441,-0.13325791,-0.52392805,-0.12971626,-0.15500546
0.35896274,-0.768571,-0.114889726,0.24363777,-0.63063395,-0.31826743,0.87686014,0.625454,-0.94522226,-0.0077038663,-0.7050785,-0.01597013,-0.37897244,0.77100134,-0.04296065,0.20323,0.45160693,-0.5645755,0.17783211,-0.39668322,0.26920277,0.7101798,-0.16530481,-0.11690108,-0.46158174,-0.42369705,-0.09866078,-1.4424707,-1.437756,0.61516315,1.0940037,-0.20264955,0.7870141,-1.3224055,-0.12909824,1.7231816,-0.41124704,-0.47685924,-1.2446321,-1.1258236,0.042532586,-0.6244952,-0.19827905,1.3615376,-0.13550149,-0.258814,0.2030885,-0.45855114,-0.37933698,0.23933135,0.13658682,-0.287956,-0.2439857,-0.015572321,0.032675713,-0.009173727,-0.837744,-0.23388839,-0.24335743,-1.2609437,0.84754145,0.21363889,-0.32110855,-0.20494446,0.02961854,0.2977497,-0.27848208,0.13069622,-1.0209397,-0.0644745,-0.0060253316,0.42181143,0.3304651,0.08638186,0.9764186,1.0806922,-1.1896949,0.7867119,-0.4979467,0.9752473,0.39107257,-0.14450559,-0.01291078,0.55853486,0.43103182,-0.3138297,0.45685768,0.27479577,0.18328677,-0.2009222,0.6348983,0.6961214,-0.28990135,0.33855513,0.7113624,0.101475716,-0.20053926,-0.22732402,0.1543981,-0.3651886
0.20138401,-0.28472805,-0.15546513,0.19495742,0.34426108,-0.12021357,0.4664847,0.52493936,-0.43708384,-0.0929259,-0.2740724,0.27726427,0.30935207,0.7027009,-0.063826986,-0.24649578,0.8645103,-0.62485945,-0.12827241,-0.87857836,0.99666077,0.26539916,-0.041024502,-0.48597538,0.057549097,-0.56039625,0.5662891,-0.62893534,-0.3566891,0.22058025,0.64675546,0.3675762,-0.12680809,-0.51823336,0.12486633,0.684038,-0.30731294,-0.6668168,-0.55401057,-0.52482754,0.37134916,-0.4978782,-0.036721688,-0.061334055,0.033202354,-0.39615616,0.09061992,-0.22302514,-0.326523,0.3905723,0.07784241,-0.46573976,-0.78663164,-0.098038696,-0.08784754,0.4035221,0.08854676,0.69120705,-0.70389014,-0.34760728,0.6017951,0.039548557,-0.32277167,-0.13379833,-0.55022305,0.07909232,0.4348731,-0.056994166,-0.4618703,0.857362,0.014680311,-0.09175871,0.07706602,-0.2150084,0.6291173,0.32344303,-0.0073631518,0.5721768,-0.5500886,0.20880361,0.12001019,0.0020055622,-0.058985356,0.81500226,-0.19830208,0.45160705,0.032845024,0.3352348,-0.0003320517,-0.02988831,0.94460225,0.5611357,-0.11775405,0.5872884,0.32156152,0.22192979,0.09829178,-0.6555931,0.30122367,0.46265522
-0.053540487,0.21077074,0.008982009,0.13834599,0.11051778,-0.84689856,0.052822035,0.84616363,-0.2855972,-0.58268255,-0.08429938,-0.6854814,-0.100427374,0.24834491,0.23333038,-0.35418853,0.14933234,-0.4673865,0.12526816,-0.5932544,-0.026036697,0.1357702,0.41192397,-0.027732346,-0.017909175,0.110937156,-0.4899534,-0.17609756,-0.10869314,0.07232189,0.32488713,-0.11555268,0.24357761,-0.5637776,-0.1119015,0.346183,-0.0119988015,-0.16797014,0.048351724,-0.3881122,-0.16071157,-0.4295189,0.05180926,-0.1615766,0.0801113,0.058879644,-0.4927934,0.19461016,0.34147954,0.22072604,0.031663317,-0.2635068,-0.11784087,-0.0708286,-0.06482681,0.19404699,0.20751804,-0.5684899,-0.109654464,0.3180034,0.16359563,0.25450844,0.040317472,0.15711093,-0.10947045,0.5906116,-0.068610564,0.20441134,-0.27343592,0.3477398,0.06127162,0.007964249,0.19699626,-0.016382499,0.7291347,-0.09080852,0.05041425,0.02471155,-0.13901198,-0.003645399,-0.12792492,0.107954964,-0.4599145,0.29999942,-0.1978807,0.04362311,0.14390317,0.20091605,0.41473532,0.24852748,0.77071625,-0.15034366,-0.0022218204,-0.002113372,0.4452474,0.29644045,-0.016463187,-0.417956,-0.28466314,0.03998647
0.11845752,0.06452124,-0.1556294,0.19858742,-0.06865661,-0.67046535,0.30280194,0.5747141,-0.5021502,-0.2623274,-0.27407607,-0.43537438,-0.0009942034,0.33754846,0.11599822,-0.35181132,0.17999795,-0.49470985,0.10642461,-0.4736194,0.007707767,0.32868508,0.06603279,0.004513484,-0.25919458,-0.043869343,-0.24895844,-0.40188032,-0.48105684,0.15954886,0.5361798,-0.09807715,0.37456647,-0.5420314,-0.032732073,0.84380203,-0.19820344,-0.31797647,-0.35977522,-0.6566869,-0.04422605,-0.47034925,-0.085440844,0.117007315,-0.006381365,0.10148903,-0.3031103,0.010236936,0.13056643,0.13020152,0.024171144,-0.36824533,-0.093652844,-0.035494015,0.10137498,0.26895726,-0.12078983,-0.28761634,-0.2197815,-0.047020674,0.34495154,0.22055143,-0.17815268,0.033123393,0.09023638,0.44851577,-0.05321555,0.12524472,-0.3818967,0.22697498,0.010232622,0.085405,0.29687083,0.02846813,0.64073545,0.18633628,-0.36854196,0.174109,-0.12886254,0.13198066,0.05099801,0.028675301,-0.32935902,0.3647407,-0.12799002,-0.05585902,0.33148,0.20990947,0.37765273,0.2175383,0.6210259,0.2605806,-0.17869712,-0.011142532,0.44161972,0.21589568,-0.1800448,-0.52894485,0.0732105,-0.062351607
-0.06285088,0.36481503,-0.10701153,0.1267934,0.15062533,-0.9523546,-0.18888044,0.94172716,0.0094762435,-0.6408838,-0.11714778,-0.7327248,-0.21842507,0.07324384,0.23519385,-0.5545492,0.30611715,-0.57226074,0.11571027,-0.60946095,-0.15099289,0.05966796,0.49648502,-0.09741175,0.09029552,0.05865271,-0.48351356,-0.0677514,-0.039123878,0.09585111,0.3682518,-0.011358754,0.2256752,-0.5053751,-0.35254973,-0.028126175,-0.15314436,-0.33726296,-0.12907033,-0.43103325,-0.27645233,-0.2702836,0.22593623,-0.5294599,0.13445696,0.047863137,-0.4473897,0.16986237,0.16137043,0.40226403,0.124855414,-0.3010367,-0.24024242,-0.06105275,-0.042689253,0.25655285,0.25307107,-0.44769403,-0.13686594,0.5702643,0.17337231,0.35321948,-0.06405188,0.10842838,-0.108183414,0.6168108,-0.09551182,0.109248504,-0.34372646,0.3585088,0.04318003,-0.08205272,0.3251791,-0.12496609,0.70410395,-0.052376997,0.10437814,-0.08542207,-0.24296565,-0.056353834,-0.12950751,0.18645608,-0.53598803,0.44579694,-0.23283926,0.061863765,0.09415009,0.2375508,0.29700878,0.22706378,0.8870401,-0.23191431,-0.016285801,-0.019616276,0.6027814,0.3362465,0.092955634,-0.46923184,-0.3745842,0.019792043
-0.08135716,0.3335908,-0.011212894,0.10840166,0.29747254,-0.8092529,0.2173801,0.5602006,-0.47684112,-0.5154676,0.042026464,-0.75699484,0.0928462,-0.024829278,0.32166907,-0.5010112,0.30220056,-0.4835801,0.05588615,-0.7227524,0.048928495,0.14804378,0.4689352,-0.09265071,0.06334212,0.10866343,-0.256895,-0.23877521,-0.087170914,0.042643916,0.10592409,-0.061291717,0.267643,-0.5414542,-0.17311765,0.40316534,-0.07486163,-0.31654054,0.027948113,-0.45203343,0.0067316145,-0.51230496,0.112528384,-0.08291094,-0.121700004,-0.039433736,-0.43062332,0.089341864,0.19397306,0.21613906,0.045457035,-0.27656728,-0.008320414,0.04029137,-0.02411368,0.13916525,0.2938632,-0.2087477,-0.33459583,0.3611899,0.14498803,0.28255665,-0.08429668,0.14919609,-0.14371856,0.6132607,0.03194472,0.20843406,-0.30009767,0.35515156,-0.06985971,0.09674918,0.15976328,-0.108950526,0.7366925,-0.17359045,0.34249875,0.14812276,-0.22412755,-0.15110858,-0.22201312,0.14586079,-0.2744755,0.13696271,-0.2838732,0.15883367,0.178154,0.33077577,0.38974613,0.17614692,0.47773215,-0.122407064,-0.18969837,0.056335904,0.47281024,0.3918505,-0.013601334,-0.37399197,-0.20427628,0.028211959
-0.5603115,0.41265878,0.437591,0.14850682,0.048407774,-0.47776836,0.45665556,0.71732956,-0.38009822,-0.18077518,-0.19195527,-0.37755162,-0.016828688,0.54762673,0.5083997,-0.5822247,-0.64341587,-0.11050229,-0.18974733,-0.58225894,0.44220632,0.094695985,0.17337789,0.33133918,-0.0202991,-0.24233669,-0.6091868,-0.48249298,0.24079114,0.60733455,0.047119014,0.03503061,0.080356166,-0.22075196,0.5578982,1.1951097,0.21526498,-0.16718435,0.53868544,-1.0871942,-0.039326526,-0.35358542,-0.10622528,0.6565545,0.061965697,-0.034149364,-0.49921176,0.65052795,0.824024,-0.21495226,0.09988495,-0.24982604,0.19446586,-0.3341681,-0.20133942,0.34734434,0.06738972,-0.67146873,-0.106121615,0.25411206,-0.12527943,0.21151908,-0.131234,-0.376544,-0.7076866,0.11437536,0.558221,1.2266235,-0.64076984,0.8716291,-0.54877406,-0.040381864,0.11369979,0.04468356,0.1276926,0.49781895,-0.06653593,-0.16308315,-0.36784065,-0.07726128,-0.014685636,0.05456332,-0.07907304,0.5596764,0.30836937,0.07911783,-0.23019698,0.08208195,0.59321594,0.54178816,0.6860127,-0.060369723,0.02110783,-0.2129378,0.51405525,0.70452917,0.14962895,-0.7042754,-0.01746414,0.11890624
-0.05232082,0.22310953,-0.14248596,0.5104627,-0.6438895,-1.0152631,-0.21252207,1.3228972,0.10904406,-0.75899535,-0.7127417,-0.7256081,-0.0998766,0.7818035,-0.0632671,-0.89536333,-0.023826307,-0.7467105,0.4465068,-0.07380004,-0.35227764,0.1699927,0.25891456,0.4015104,-0.17364602,-0.076301746,-0.9946119,-0.08286076,-0.3691427,0.1110434,0.59564686,0.005751839,0.3498842,-0.51144725,-0.24232158,0.7483965,-0.2694451,-0.6015759,-0.7664438,-0.57344943,-0.9919528,-0.19768564,-0.17999509,-0.57177705,0.62648773,0.5425634,-0.2973517,-0.09980014,0.24855722,0.26267657,0.047697674,-0.26808217,-0.41429007,0.14892146,-0.1267995,0.43401608,-0.5153043,-1.1386727,0.3066556,0.20744905,0.60624635,-0.1657557,-0.008427416,0.048231315,0.48833743,0.28578267,-0.6600847,0.20673358,-0.26354223,0.21347733,0.49643618,0.022251535,0.47931919,0.19713381,0.59596366,0.21210065,-0.9237584,-0.5053688,-0.10855424,0.095922925,0.11744527,0.0642488,-0.78923243,0.4655184,0.1698008,-0.467222,0.6174016,-0.16446975,0.3533306,0.04427013,1.2858994,-0.23845059,-0.2893955,-0.069089286,0.5581611,0.4615035,-0.06403829,-0.81571877,-0.5565981,-0.34142542
0.074994795,0.07542915,-0.2137044,0.108190395,0.4961615,-0.7927393,0.1089208,0.8675606,-0.27553862,-0.40349513,0.005398708,-0.298294,0.028510386,0.05326092,0.28667083,-0.388898,0.64836663,-0.5162278,-0.19256702,-0.82466286,0.26321283,0.15616305,0.47701353,-0.3876319,0.22810127,-0.14841382,0.032542344,-0.2715273,-0.20222329,0.14346337,0.41985014,-0.10734706,0.26089334,-0.7217578,-0.21987182,0.09590707,-0.14376727,-0.4794687,-0.1508602,-0.3121452,0.18962221,-0.49225062,0.20513909,-0.35295442,0.05380224,-0.15179546,-0.34134796,0.13021584,-0.058385115,0.48818773,0.15688533,-0.38677198,-0.48133978,-0.0040065963,-0.21168964,0.23859577,0.33137885,0.121964455,-0.3676198,0.31315425,0.26867685,0.3259555,-0.027005693,0.04139844,-0.32573316,0.75680286,0.18689246,0.09006707,-0.4646498,0.5242318,-0.030585086,0.032557752,0.16605304,-0.20034252,0.80831575,-0.110279515,0.43934488,0.27401716,-0.46435922,-0.07404315,-0.23810697,0.1025504,-0.4100855,0.4536176,-0.399693,0.20502304,0.121296026,0.25833553,0.15389886,0.15186274,0.76476634,0.046257935,-0.12741537,0.19433427,0.48418626,0.2722584,0.17391932,-0.41649467,-0.25112644,0.25746167
-0.37214893,0.52647203,0.047286604,0.48312998,0.06846751,-0.73807263,0.13761103,0.7953313,-0.024006711,-0.5043077,-0.4328058,-0.5232403,0.25290182,0.2849143,0.0388032,-0.88265115,0.2626147,-0.41637143,-0.031857934,-0.47793877,0.10518433,0.23174675,0.11265954,0.29504165,0.08536497,-0.25635123,-0.10430833,-0.20490025,-0.013931193,0.26092738,0.30591252,-0.019618671,0.0192671,-0.21831346,-0.025827212,0.864187,-0.09419809,-0.7129835,-0.18363176,-0.59786963,-0.07525429,-0.48396102,-0.03838019,-0.3853045,0.27452096,0.15414897,-0.4881587,0.10075459,0.043931145,0.24132992,0.045454353,-0.21912518,-0.36586586,-0.12631582,-0.26500764,0.5728153,0.22858974,-0.08266168,-0.029638616,0.3036782,0.21451874,0.026268225,-0.10379332,-0.09053901,-0.38982704,0.13503107,0.042621557,0.46786913,-0.31441212,0.7038608,0.049934138,0.0014947178,0.34709707,0.03003376,0.2879525,0.057137907,0.20375131,-0.1690201,-0.5415603,-0.14791054,-0.13854364,0.041618142,0.02510004,0.37326646,-0.18231821,0.005565863,-0.008858824,0.058725215,0.33528534,0.17725424,0.6549181,-0.08761526,-0.15334556,0.08567276,0.2412766,0.6157246,0.053359315,-0.4927182,-0.29721785,0.2131913
0.1427214,0.3515374,-0.2997666,-0.22190826,0.8235521,-1.2186338,-0.31234118,1.1633135,0.04691428,-0.8339966,0.34861502,-0.72662747,-0.3298882,-0.45266202,0.6411033,-0.33306998,0.96754557,-0.5906898,-0.23882438,-1.2697101,0.054895453,0.005686829,0.9422469,-0.67822814,0.37400305,0.30951974,-0.22880591,0.0114270495,0.22645219,0.20363793,0.31986254,-0.25288615,0.33172464,-0.9691954,-0.6393798,-0.93680686,0.123214535,-0.36277404,0.0996034,-0.055950716,0.13954638,-0.42112416,0.68466103,-0.61620855,0.057874966,-0.15316872,-0.48852766,0.32696107,-0.0046163267,0.7919265,0.29919073,-0.39095598,-0.43109906,-0.15385039,-0.26468858,0.103347026,0.81441516,0.19449106,-0.47729313,0.926518,-0.06438873,0.71589166,0.1390296,0.29617387,-0.40427577,1.2520689,0.2195366,0.009067876,-0.41636392,0.5243589,-0.17486152,-0.23208493,0.29393554,-0.4109312,1.0408885,-0.31983906,1.0090677,0.4692154,-0.34819472,-0.07316364,-0.4684936,0.3249343,-0.79477966,0.447171,-0.6648153,0.32711077,-0.08220612,0.5213146,0.0451522,0.36817965,1.0280678,-0.26310602,0.15938067,-0.016711516,0.82210463,0.34667504,0.45825517,-0.37815055,-0.47569543,0.43217728
0.54907775,-0.0060191494,-0.5147978,0.23664765,0.121910706,-0.36196464,0.5196007,0.5987408,-0.693561,0.005810634,-0.8636713,0.26200947,0.69561136,1.1180313,-0.08976753,-0.5216426,0.3086122,-0.4769231,-0.009539793,-0.51448494,0.5783604,0.4621729,-0.22238754,0.18666945,-0.5096953,-0.49170002,0.081993885,-0.56178004,-0.83171266,0.13836916,1.0240368,-0.2198816,0.8855989,-0.7995713,0.13241313,1.2637135,-0.33317277,-0.39230362,-0.89623857,-0.30766037,-0.12714797,-0.2903454,-0.18162826,-0.0828406,0.29624477,0.30434412,0.03018852,-0.39356855,-0.12023971,0.08771367,-0.30587387,-0.40261486,-0.9377617,-0.1776191,0.03484672,0.56807387,-0.68781334,-0.08240501,-0.44752514,-0.47075737,1.1329612,-0.32436094,-0.25436306,0.22466989,0.08449373,0.15885717,-0.08227319,-0.39111218,-0.30786997,0.75383484,0.5374682,-0.113958545,0.109607555,0.024952585,0.95143884,0.0015079265,-0.5701043,0.1950405,-0.33661196,0.30937558,0.41811994,-0.37783912,-0.79519254,0.379174,-0.15158547,-0.37600812,0.8110269,0.08072593,0.22758904,-0.12335427,0.93563086,0.6906906,-0.22819996,0.32146835,0.1206623,-0.06251926,-0.084572986,-0.7599546,0.033321105,0.0020397087
-0.858863,0.5274932,0.42365524,0.5160172,-0.091245845,-0.50911784,0.5809887,0.58996856,-0.23365374,-0.52364266,-0.27898467,-0.6470807,0.24613205,0.6201993,0.3660123,-0.7865508,-0.34216574,-0.11375735,0.023072843,-0.50979125,0.5782171,0.2849414,-0.0003836896,0.5305859,-0.21551956,-0.26574966,-0.35551235,-0.5560829,0.26821193,0.4758127,0.123546824,-0.013677539,-0.12021168,-0.16159073,0.41497666,1.4644985,0.4106393,-0.59697884,0.15379317,-0.93379414,-0.101016805,-0.45597187,-0.22538449,0.64684474,-0.02107599,0.11866826,-0.7009897,0.33407417,0.6380062,0.23441534,0.15972471,-0.14729714,-0.004718053,-0.091859035,-0.43844506,0.69685024,0.2898966,-0.2924705,0.086875714,0.05977306,-0.06839402,0.017604996,-0.046583716,-0.36393675,-0.694566,-0.018625112,0.18915114,1.1951456,-0.6673974,0.93829757,-0.29428995,0.26459628,0.40246478,0.098869,0.21554664,0.3339824,0.076501064,-0.12508576,-0.43992737,-0.08162114,-0.0030116641,-0.02454568,0.33771667,0.23403524,0.023265395,0.08819657,-0.3875182,-0.12989405,0.6171528,0.445949,0.5152644,-0.11705795,-0.3302062,0.15429641,0.19528332,0.7773867,0.05689565,-0.503351,-0.053064413,0.22065638
-0.62728506,0.6062199,0.38903654,0.3303223,0.11506066,-0.57624936,0.45044956,0.7435396,-0.18773517,-0.54814845,-0.30376986,-0.5594263,0.18231393,0.53606087,0.37931985,-0.785438,-0.42821887,-0.13077968,-0.009953965,-0.6065036,0.47994977,0.06966738,0.20110765,0.47286987,-0.0015136546,-0.2398298,-0.42325124,-0.38912073,0.27052143,0.51319534,0.021005318,0.05015099,-0.02976779,-0.28326288,0.4050848,1.1247665,0.30076897,-0.38355374,0.33700526,-0.9228668,-0.104363054,-0.3635186,-0.012934014,0.33193457,0.12152696,0.018140657,-0.6249553,0.46757343,0.75777316,0.0033848148,0.14350405,-0.17507912,0.030724797,-0.19494414,-0.35385588,0.5037407,0.19738714,-0.5227067,-0.11303161,0.29482254,-0.055193413,0.14426303,-0.081592366,-0.2516073,-0.73023224,0.08143065,0.39335155,1.128618,-0.6094397,0.93260485,-0.26766095,0.11824793,0.22992563,-0.052126955,0.2611541,0.30889252,0.17294097,-0.2338186,-0.42244557,-0.14300196,-0.021048289,0.009004401,0.048743732,0.2818584,0.09120314,0.119013086,-0.21278974,0.054268993,0.5641148,0.49761894,0.6216882,-0.17581406,-0.19085075,0.029964093,0.24203077,0.65486324,0.13215248,-0.5850211,-0.16206616,0.1978934
-0.0815835,0.107193224,0.04943739,0.3299613,0.041937787,-0.8628539,0.29129413,0.57413584,-0.46313387,-0.59760743,-0.10500476,-0.88162905,0.016715726,0.34439486,0.1822457,-0.22992395,0.07375841,-0.4668383,0.23904374,-0.55920225,-0.049578886,0.33650184,0.21933016,0.11020008,-0.22957364,0.2364861,-0.36534968,-0.2711121,-0.20383659,-0.04867603,0.40543082,-0.193762,0.33290237,-0.5272846,-0.041807216,0.81913155,0.120262995,-0.28062525,-0.2346,-0.53799605,0.017457133,-0.60510963,-0.13705203,0.11563268,-0.02902944,0.18291569,-0.6930795,0.0852559,0.46514618,0.2413967,-0.01451005,-0.3163417,-0.02085575,0.13058008,0.007629196,0.27354652,0.14157933,-0.5051176,-0.023305943,0.09797807,0.24836902,0.23789099,0.079787165,0.23668781,0.13998137,0.5639763,-0.20174049,0.19837214,-0.19370629,0.239043,0.14252084,0.21593794,0.235491,0.14379682,0.7936913,-0.20860337,0.084354095,0.01166241,0.13062494,-0.024344487,-0.11076742,-0.036508482,-0.23443301,0.112624906,-0.36572322,-0.018595371,0.25716126,0.16134578,0.5320526,0.37541136,0.49822745,0.06725585,-0.16783988,0.109903865,0.32378668,0.31294012,-0.3164515,-0.38117537,-0.16362296,0.14272326
-0.7976443,0.39506167,0.5065406,0.21455014,0.34632292,-0.6419431,0.5195756,0.7668097,-0.35462132,-0.28368106,0.13542469,-0.45961952,0.07160854,0.23949322,0.754874,-0.59200907,-0.5068504,-0.14011332,-0.42151582,-0.7756824,0.44507855,-0.0061051683,0.53680354,0.28956932,0.42361763,-0.15806061,-0.63026375,-0.34041634,0.40126976,0.6581225,-0.21633327,-0.1308543,0.10050925,-0.62012506,0.43364218,0.78980213,0.42344108,-0.026385512,0.81479985,-0.76142085,-0.04955756,-0.4536289,0.02053414,0.5845359,-0.021134946,0.026897242,-0.5914822,0.7877873,0.74087983,-0.09467036,0.08996526,-0.16433704,0.16363022,-0.30725762,-0.430043,0.09456493,0.12719476,-0.50976473,-0.16546068,0.6608452,-0.35286504,0.13561,0.11773287,-0.3419426,-0.91356534,0.17073616,0.6647273,1.352794,-0.61631536,0.71733755,-0.7568311,0.17111559,0.121191636,-0.21136591,0.30334732,0.35018885,0.441736,-0.106521934,-0.4897723,-0.21501777,-0.0833539,0.13157825,-0.16548333,0.3217612,0.15738337,0.10077579,-0.38203233,0.12299189,0.514409,0.45031658,0.5072897,-0.29910296,0.12800793,-0.22446634,0.6637869,0.716883,0.32130983,-0.5171688,-0.054811526,0.20772417
-0.1597404,0.14915408,0.030195862,0.20160724,0.094484225,-0.6186477,0.12279967,0.67900956,-0.19891976,-0.32909924,-0.11158261,-0.49840507,-0.10568368,0.23767142,0.29741737,-0.407694,0.18761013,-0.44543356,-0.018390499,-0.59835577,0.18942794,0.091506444,0.24659084,-0.05849521,0.028837476,-0.11874283,-0.24556303,-0.3414441,-0.051535733,0.22799522,0.30580467,0.076310076,0.09386506,-0.36480603,-0.087915495,0.38930014,-0.04644399,-0.4256349,-0.09973747,-0.61717826,-0.028679768,-0.37110808,0.09704994,0.032222137,-0.03401053,-0.113877214,-0.40397933,0.2535133,0.17692919,0.23237841,0.107973754,-0.23662972,-0.104747765,-0.09389221,-0.0758301,0.28165326,0.18055324,-0.1292177,-0.22282372,0.29404142,0.046679024,0.3455312,-0.15301909,-0.066014245,-0.33490446,0.38657576,0.15466249,0.41938448,-0.4034616,0.45639026,-0.16119385,-0.04419745,0.21895947,-0.13029575,0.48601463,0.17032887,0.16373086,0.059414987,-0.27564457,-0.044161987,-0.07479081,0.13266739,-0.19262052,0.42126578,-0.13767394,0.1653071,-0.017963367,0.2091239,0.30395368,0.23699306,0.6880634,-0.015900463,-0.074984014,0.037710436,0.47509646,0.43770126,0.09176351,-0.4589554,-0.012824063,0.10375498
-0.09564392,0.27923927,-0.0430362,0.28707638,0.15482599,-0.4864122,0.3321529,0.6019339,-0.3455429,-0.3120155,-0.38715437,-0.29843634,0.31930318,0.35304475,0.12180529,-0.5650237,0.22067699,-0.40612075,0.12469103,-0.5742949,0.34446564,0.22184986,0.14261138,0.042835694,0.0026610666,-0.28028432,-0.046315122,-0.34141177,-0.18644217,0.24650346,0.37489313,0.045376856,0.10860969,-0.39799657,-0.013015849,0.80742955,-0.17556356,-0.537415,-0.22096632,-0.5799189,0.016833715,-0.42989188,-0.025804745,-0.025145205,0.053957652,-0.081671074,-0.20332445,0.0071158004,0.05170067,0.14218177,0.013197418,-0.29047787,-0.34025818,-0.11851484,-0.07513902,0.40502337,0.057144232,-0.006469589,-0.2590706,-0.03333022,0.34162885,0.15147273,-0.1390999,-0.0037912873,-0.32136968,0.20244296,0.15110357,0.27178413,-0.3657784,0.61030835,0.020232677,0.06536795,0.14033961,-0.09856832,0.50830007,0.07360941,0.023553947,0.11096873,-0.4162438,0.024250448,-0.0076666046,0.007430687,-0.06419291,0.36952972,-0.04863249,0.122691765,0.016382031,0.16148089,0.2856207,0.056286536,0.58815473,0.06514197,-0.19810277,0.22699724,0.25376695,0.3584139,0.065485775,-0.41923723,-0.11222398,0.09557413
-0.037535872,0.38805786,0.050729383,0.42538217,0.13138156,-0.6672321,0.36584216,0.65120465,-0.47380957,-0.42226136,-0.36913362,-0.59079945,0.50915164,0.43528673,0.17934942,-0.6117222,0.15710448,-0.5158209,0.29123282,-0.6787059,0.22936262,0.25673473,0.34437162,0.16104014,-0.11144429,-0.14566492,-0.19502884,-0.14773293,-0.33538485,0.033251114,0.44518077,-0.031068895,0.3183026,-0.48339197,-0.060442064,0.82192194,-0.12261027,-0.41650635,-0.37226707,-0.45837474,-0.041154448,-0.5419122,-0.095315,-0.09320051,0.026177438,0.028837102,-0.25871184,-0.093991965,0.20311195,0.12703711,-0.16840874,-0.39700934,-0.3156527,-0.02227388,0.042516768,0.49035344,0.030721353,-0.2358461,-0.17804737,-0.073317595,0.50628275,0.034654986,-0.03150733,0.30982918,-0.12638763,0.22290711,-0.015800094,0.20647603,-0.21943821,0.6419242,0.23389944,0.11666943,0.11131073,0.0031292965,0.8023651,-0.1311191,0.00041521018,-0.044635847,-0.22120818,-0.08713299,-0.05692671,-0.11500923,-0.23268947,0.20899452,-0.24644393,0.024116157,0.19946092,0.067923546,0.43400878,0.15033756,0.62338734,0.09077881,-0.3874403,0.19657448,0.20647672,0.29469508,-0.11481318,-0.4079206,-0.24313417,0.03701986
-0.03777675,0.2117372,-0.07959667,0.16775906,0.24350864,-0.7068673,0.12953246,0.66389793,-0.33322215,-0.42072228,-0.11625619,-0.46207842,0.07595745,0.12411962,0.25943428,-0.4711115,0.29279348,-0.49735335,0.032347146,-0.70972335,0.15837455,0.15216462,0.34671292,-0.088237025,0.07103735,-0.07174664,-0.17325638,-0.24834974,-0.18564247,0.24224614,0.30887437,-0.024652334,0.23729195,-0.46055698,-0.15150456,0.37763166,-0.18406412,-0.44586083,-0.13984294,-0.5289305,-0.039548893,-0.3652133,0.12026008,-0.16734707,0.022521421,-0.047209624,-0.34133685,0.082849085,0.10683254,0.28895947,0.10542515,-0.3549702,-0.27549294,-0.08223988,0.0067200395,0.22777392,0.18922062,-0.051563986,-0.33036387,0.2873318,0.16597335,0.29742023,-0.14181821,0.013458895,-0.25132474,0.4392984,0.13532038,0.18123627,-0.33879974,0.4569475,-0.05829734,0.00053229067,0.19469059,-0.19688934,0.64169705,-0.0065323357,0.20290121,0.11236458,-0.31080377,-0.034406506,-0.09805588,0.15366463,-0.29304647,0.36793187,-0.18675524,0.09183588,0.09915985,0.29293364,0.2917793,0.18792205,0.6431013,0.0023041468,-0.11419556,0.09950743,0.5005688,0.42060843,0.07499203,-0.4840427,-0.1378136,0.07138027
0.34024075,0.20564467,-0.29580966,0.36481288,0.22245838,-0.60107356,1.0022862,0.2718081,-1.3107648,-0.12129885,-0.62451494,0.118404806,0.6903663,0.57054037,-0.15654106,-0.28229156,0.28645182,-0.5326376,0.5480165,-0.6311706,0.36179128,0.3751769,0.10975302,0.2109976,-0.42640886,-0.29971072,-0.061889563,-0.5836639,-1.0230736,0.26909804,0.79340166,-0.20488435,0.56380165,-0.8927484,0.20104212,1.4251031,-0.5624284,-0.31679407,-0.5591544,-0.66797054,0.13767155,-0.5866291,-0.2780068,0.20499831,-0.014952717,-0.07121535,0.1521786,-0.31107506,0.24193704,-0.018546417,-0.080313936,-0.49576762,-0.46487948,-0.18550837,0.1657814,0.31833944,-0.45656967,-0.40133885,-0.61769974,-0.8661379,0.9831376,0.053376783,-0.1424896,0.27764115,-0.05523121,0.46867666,-0.015069934,-0.06385093,-0.3176148,0.44267204,0.37321097,0.09278363,-0.09262735,0.07602478,1.0371288,-0.06359009,-0.35330614,0.5922637,-0.24616602,0.35984147,0.26075605,-0.21132353,-0.22464912,0.25601247,0.047097094,-0.1818,0.5936771,0.49380118,0.45804426,-0.0115936855,0.6112506,0.26369005,-0.4016239,0.3275577,-0.05911353,0.032756943,-0.15317242,-0.37971285,-0.086186446,-0.06644677
-0.13811669,0.58730394,-0.04872397,0.29527992,0.14360718,-0.8805371,0.033156365,0.78962576,-0.21458037,-0.62437534,-0.23160858,-0.7545812,0.17780963,0.06692071,0.23113145,-0.80962956,0.25643277,-0.43960732,0.20307428,-0.74958545,-0.022711389,0.06923297,0.5928733,0.12931196,0.1613465,-0.021910157,-0.355213,0.034454778,0.009084924,0.19546123,0.19693513,-0.08726632,0.15244234,-0.53344625,-0.15979283,0.26854125,-0.14849983,-0.47616452,0.1011189,-0.48678,-0.27374208,-0.47943932,0.21439713,-0.3996305,0.12303251,0.095575675,-0.46726066,0.12804458,0.25593045,0.21775712,0.079796374,-0.39784625,-0.16607055,-0.115116924,-0.03888091,0.30844018,0.2735056,-0.43040732,-0.1315251,0.4897507,0.2306086,0.21596137,-0.030057663,0.1807054,-0.3570499,0.46469423,0.02130633,0.39498806,-0.301357,0.5815801,0.049122825,-0.06375834,0.23654315,-0.141531,0.6396233,-0.09475412,0.25795382,-0.018857364,-0.3645695,-0.21020186,-0.15965989,0.1542136,-0.31557068,0.27117574,-0.19102827,0.114039235,0.02416476,0.1366401,0.33386278,0.16218784,0.72358346,-0.34104234,-0.15003484,0.075551175,0.45178285,0.3633558,0.13279253,-0.4116379,-0.46968666,-0.013530271
0.27297637,0.015148732,-0.21001802,0.19312495,0.102887265,-0.9599237,0.0059909658,0.80634904,-0.25079283,-0.731824,-0.22542736,-0.6534598,0.049239192,0.271248,0.23559137,-0.41395828,0.3801406,-0.5006554,0.4158594,-0.51839375,-0.086793154,0.063596494,0.45679715,-0.01170181,0.0827269,0.11026155,-0.45590574,0.00018110666,-0.24013536,0.05323003,0.4890238,-0.1957537,0.3832271,-0.86100894,-0.28522837,0.2972451,-0.073151276,-0.32328618,-0.25862586,-0.30718064,-0.25916702,-0.52570605,0.15624638,-0.28254434,0.1334673,0.14742157,-0.35228574,-0.030276429,0.20414004,0.3003102,-0.0026708047,-0.37241194,-0.30082864,0.08170022,-0.046510264,0.24189147,-0.11675882,-0.43836507,-0.0032343338,0.17170994,0.4534322,0.27194583,0.16497798,0.36234897,0.23312731,0.7180393,-0.25551438,-0.0012384007,-0.21035163,0.12733328,0.3280722,0.092848495,0.2451137,0.019943673,0.9111773,-0.19203961,-0.1524358,0.1674379,-0.09606818,0.045087785,-0.16814198,0.0539827,-0.5863993,0.2968392,-0.16400708,0.005280872,0.411911,0.14505221,0.26823682,0.02910286,0.80258554,-0.15614806,-0.11551181,0.07324277,0.42263055,0.22194129,-0.02995962,-0.43081754,-0.4344975,-0.09346695
0.02938496,0.29717717,-0.1721285,-0.1547804,0.5886119,-1.1533455,-0.14482065,0.9731537,-0.055881716,-0.8010189,0.27224183,-0.68566597,-0.32015482,-0.23267473,0.60768414,-0.292508,0.5186849,-0.40133217,-0.1551772,-1.0685627,-0.02715253,-0.086423256,0.7413015,-0.32417765,0.2748367,0.23710267,-0.36870992,-0.029433891,0.2930788,0.15470792,0.18769766,-0.10347444,0.20799552,-0.7327621,-0.27703524,-0.48973307,0.28383672,-0.3505518,0.4312754,-0.22220184,0.00818567,-0.49296695,0.5416328,-0.4330637,0.07357336,-0.08079679,-0.5409387,0.46142244,0.3714423,0.45485628,0.24380931,-0.27297977,-0.17695154,-0.09913299,-0.22106971,0.27104822,0.59363765,-0.07092355,-0.22525275,0.86404777,-0.0627536,0.64894044,0.06731723,0.23906521,-0.27657968,1.0222869,0.13434821,0.23730202,-0.38012952,0.50885195,-0.284923,-0.2310544,0.21774271,-0.24860889,0.74810004,-0.23746602,0.6581756,0.3303904,-0.19884107,-0.11266384,-0.32088125,0.28617227,-0.6842881,0.48891616,-0.3887823,0.36101046,-0.09594446,0.3476198,0.25973472,0.43448985,0.88759464,-0.33182108,0.15893146,-0.068263665,0.70733285,0.3605051,0.32373497,-0.54787487,-0.3400847,0.13637519
-0.7831119,0.6798177,0.28490058,0.3998868,0.41942307,-0.86364836,0.21034643,0.7444245,-0.2787847,-0.5464576,-0.025868168,-0.7877313,0.33299094,0.20827897,0.49635568,-0.983354,-0.045195766,-0.3610045,-0.20203032,-0.6419195,0.4871069,0.110673666,0.28813937,0.46187744,0.19703436,-0.042593174,-0.44217557,-0.22648254,0.36374822,0.40990928,-0.07998758,0.08316408,-0.20180187,-0.5177428,0.17896219,0.67694974,0.091225706,-0.4973863,0.56584424,-0.60245687,-0.10030937,-0.6694363,0.056210175,-0.04584744,-0.11007094,0.023018314,-0.84680676,0.507603,0.667911,0.3311013,0.13198866,-0.31452194,0.10165052,-0.23172268,-0.47260112,0.38569772,0.571233,0.034044284,-0.044663697,0.8318724,-0.31132257,0.1664425,-0.08298337,-0.25701204,-0.67850316,0.29254574,0.28068593,0.9577709,-0.41175833,0.86204165,-0.39490184,-0.1444348,0.40323788,-0.29649574,0.4154253,-0.07344611,0.71100134,-0.16325037,-0.32042024,-0.36377656,-0.2751081,0.11503357,0.02878823,0.3157532,-0.35225803,0.04519718,-0.35154358,0.117334016,0.48218337,0.30988166,0.6896409,-0.44466296,-0.021485552,-0.1327716,0.14305454,0.80128103,0.2633498,-0.6585732,-0.047658574,0.4824432
-0.1201048,0.34724647,-0.02375678,0.3726827,0.039007977,-0.66444075,0.3818119,0.6200662,-0.47235835,-0.31857345,-0.4470256,-0.31890032,0.27447295,0.4036682,-0.0026207252,-0.567366,0.07041923,-0.48554364,0.20155053,-0.39928827,-0.028913187,0.31906682,0.05489672,0.25092888,-0.107833594,-0.16884296,-0.29704967,-0.2864179,-0.38704437,0.11535063,0.4381437,-0.045370523,0.18571264,-0.39870057,0.06618133,0.9735246,-0.227318,-0.37938833,-0.21118149,-0.61526346,-0.06954134,-0.41125184,-0.21011654,-0.16464698,0.18264286,0.11554076,-0.3275992,-0.008464227,0.27848837,-0.0064477026,-0.09216832,-0.28082353,-0.31395936,-0.13397244,-0.05097354,0.36559775,-0.07225217,-0.51955783,-0.16254623,-0.077599965,0.54542655,0.074644744,-0.120792896,0.051320035,-0.14214383,0.34231618,-0.06982683,0.23091714,-0.22445484,0.48449352,0.2054354,0.08241181,0.13242058,0.10962135,0.6689718,0.014858162,-0.14548357,-0.04137914,-0.24630016,0.0074420245,0.12580656,-0.15609255,-0.19816703,0.35075444,-0.089648575,-0.13819285,0.24917236,0.19109412,0.4289419,0.16576815,0.70902467,0.18192223,-0.14897011,0.07141179,0.18359803,0.3718949,-0.119192086,-0.42535323,-0.24351382,0.09363133
-0.10576083,0.25019017,0.031107893,0.23102726,0.3132209,-0.5543424,0.17876707,0.7011731,-0.268596,-0.42448503,-0.18925667,-0.40332982,0.27743495,0.3090373,0.18530637,-0.6271217,0.41103512,-0.4730216,-0.013585626,-0.6753933,0.37977886,0.08356699,0.275766,-0.107397005,0.17526743,-0.17691797,-0.013075694,-0.18440984,-0.06635368,0.24610877,0.20989814,0.10407864,-0.04991642,-0.4653252,-0.05489245,0.46096483,-0.12141886,-0.51890445,-0.029767308,-0.4259721,0.06801963,-0.51548165,0.12481904,-0.22917277,0.10252407,-0.09961838,-0.32388076,0.05459883,0.1409858,0.18689202,0.0071096425,-0.32832795,-0.28938875,-0.022065567,-0.228742,0.34423116,0.1733167,0.07972944,-0.30125383,0.19208959,0.3067443,0.09986063,-0.098098226,0.014749827,-0.3662542,0.33450583,0.21257338,0.2760456,-0.32178184,0.6072377,0.048657794,0.036308847,0.17953521,-0.15954371,0.5003253,-0.022052357,0.29843485,0.110736504,-0.35830227,-0.14669672,-0.08750249,0.04217352,-0.12093341,0.36231738,-0.17981736,0.22592965,0.041653164,0.16597204,0.24856788,0.09478518,0.69969404,-0.07200271,-0.1576156,0.12957469,0.22769526,0.37491298,0.1421998,-0.48535305,-0.14441083,0.20938975
-0.04161614,0.21876417,-0.094843924,0.22931258,-0.022106327,-0.6741327,0.016424216,0.75707203,-0.18994536,-0.39539328,-0.20265077,-0.55138314,-0.21720557,0.109464884,0.11483486,-0.539383,0.25581464,-0.44779187,0.05639884,-0.5798773,-0.051406,0.08184886,0.309102,-0.05236285,-0.013819271,-0.11350847,-0.28246722,-0.32360807,-0.20711412,0.18412308,0.4675977,0.10782428,0.23015848,-0.4986005,-0.25122547,0.25214165,-0.21299636,-0.32379532,-0.3390959,-0.6630159,-0.14148673,-0.26609826,0.10596952,-0.13761222,0.091958605,-0.07199758,-0.2867934,0.019760864,0.038919535,0.35516927,0.13898487,-0.32794484,-0.25348932,-0.029464679,-0.011383617,0.26259607,0.09742356,-0.22640549,-0.12787156,0.33440992,0.21341361,0.28917673,-0.13765953,-0.09439319,-0.27361462,0.36871815,-0.07059115,0.22202602,-0.5085221,0.32565805,-0.11424057,0.019072665,0.35464713,-0.12149096,0.6065518,0.20224585,-0.06847263,0.093997635,-0.4644816,0.07603869,0.054018363,0.16396771,-0.34737164,0.45069215,-0.03458902,0.064507954,0.10526525,0.24203947,0.29715446,0.16587217,0.69402015,-0.031167991,-0.0566532,0.028024992,0.61156046,0.28064603,0.042543493,-0.41564164,-0.024316503,-0.10373895
0.163867,0.12866421,-0.099739976,0.0744778,0.6068548,-0.90909195,-0.17248331,0.8807666,-0.2796786,-0.6033714,0.04148778,-0.53100353,0.008821922,0.028634595,0.4604303,-0.43659717,0.81111914,-0.64774054,0.02247385,-1.0858799,0.21918322,-0.063842826,0.7455407,-0.4633096,0.3115934,0.074542865,-0.019168336,-0.0017616319,-0.11796492,0.16867138,0.25551257,0.088162504,0.14415453,-0.8148879,-0.379628,-0.32628676,-0.12558557,-0.4856489,-0.047038674,-0.15260725,0.21039268,-0.6271787,0.32066974,-0.5793321,0.012854222,-0.25508344,-0.35043398,-0.032350246,0.11020678,0.4790416,0.096132845,-0.48039514,-0.45933902,0.09540045,-0.07921099,0.1657966,0.31871417,0.10512628,-0.38182372,0.5311948,0.29763395,0.47055632,0.0098114945,0.23915163,-0.31135392,0.8849038,0.26002067,-0.024860047,-0.42146343,0.55999607,0.015865445,0.008585526,0.1520141,-0.37669203,0.92207295,-0.2106616,0.44980755,0.398333,-0.19803704,-0.19363748,-0.32116106,0.1233592,-0.4546402,0.5545649,-0.44713217,0.4564796,0.044972498,0.38958034,0.13444375,0.03968269,0.9846259,-0.1506162,-0.045449577,0.12402279,0.5726324,0.20893618,0.18241048,-0.5101105,-0.2760896,0.22597761
0.39961433,-0.47541097,-0.26636186,0.1596385,0.69107234,-0.21499605,0.359021,0.58950126,-0.6040781,-0.13242112,0.16625157,0.24900961,0.23577634,0.33827865,0.09158876,-0.011295656,1.0840245,-0.741841,-0.2933708,-1.1595423,0.95926505,0.2206241,0.17740698,-0.88303167,0.14371017,-0.4637728,0.829759,-0.62156594,-0.42006603,0.07697075,0.46320155,0.37665257,-0.034993693,-0.7176733,-0.12612347,0.1089869,-0.28850046,-0.7148735,-0.46695215,-0.30103683,0.71088845,-0.6421271,0.037892275,-0.11814481,-0.21339236,-0.446554,0.0041245804,-0.21222007,-0.26059702,0.6048824,0.22819383,-0.6845069,-0.9058028,0.13646375,-0.010817219,0.27204436,0.20181878,1.0025505,-0.8011222,-0.11399693,0.46088505,0.3390165,-0.2431812,-0.19340226,-0.60428023,0.45731524,0.5390788,-0.20679982,-0.5409006,0.60937274,-0.11593503,-0.029209832,0.05703187,-0.46541736,0.90717095,0.03376831,0.37484407,0.82303274,-0.4259433,0.026015062,-0.12229821,0.10325906,-0.12004523,0.79924285,-0.4365248,0.62367165,0.054285437,0.43239573,-0.16447157,-0.093380146,0.850268,0.5454559,-0.16024634,0.69669646,0.5041758,0.12834932,0.21817812,-0.57369155,0.43383375,0.47971037
0.24225694,-0.22869922,-0.15985517,0.32677937,-0.5567268,-0.38789558,0.40771165,0.6678071,-0.63009584,-0.08460778,-0.5539704,-0.121269464,0.05870986,0.7719989,-0.19829704,-0.23335971,0.2618179,-0.65350896,0.16427428,-0.35021985,0.07995986,0.49928853,-0.32231522,-0.04855001,-0.43794665,-0.3338956,-0.3089337,-0.6974549,-0.81698346,0.20234013,0.75578505,0.07862168,0.35033977,-0.63065547,0.04534676,1.2919998,-0.39435318,-0.43776858,-0.8091752,-0.79400826,-0.078651614,-0.3471773,-0.29842016,0.24516259,0.1447771,0.11481874,-0.10623993,-0.19175129,-0.11334113,-0.006935506,-0.015123082,-0.32878658,-0.38072088,0.07519378,0.2068295,0.1779584,-0.5891355,-0.34316507,-0.2771929,-0.3888841,0.72299284,-0.0031667552,-0.2624915,-0.21233416,0.12773483,0.12181348,-0.11049711,0.04905141,-0.45542705,0.12635495,0.16737397,0.1369289,0.23403426,0.123552695,0.66125226,0.59552944,-0.9240543,0.12827402,-0.23589845,0.33494022,0.2813223,-0.049644295,-0.32330936,0.6423463,0.18370593,-0.25326267,0.5689879,0.23250037,0.30260456,0.039130338,0.80830467,0.5932298,-0.21078295,0.26062667,0.4786369,0.14739844,-0.17759866,-0.62024605,0.32192817,-0.1425653
0.07653003,0.12001109,-0.12908523,0.14926933,0.27316108,-0.7955877,0.29912138,0.5867884,-0.48240405,-0.4216128,-0.11518772,-0.5231755,0.18984994,0.15108512,0.18708684,-0.36772224,0.3740298,-0.44613662,-0.03513632,-0.6488626,0.14535294,0.25745264,0.23690444,0.06487069,0.032259144,-0.035694387,-0.096509136,-0.39661142,-0.36268815,0.14126503,0.3669762,-0.20177124,0.42478913,-0.73780274,-0.21737826,0.5993677,-0.14088818,-0.34689158,-0.21067818,-0.378923,0.11942506,-0.56781423,0.116955124,-0.14536847,0.0054639783,0.09795957,-0.41056705,0.0017035475,0.11438065,0.3356108,0.045896202,-0.35445675,-0.2316008,-0.056994647,0.007537686,0.08226593,0.16385959,-0.020512568,-0.2810772,0.08521134,0.25983876,0.20502189,-0.04662359,0.1139476,-0.05218958,0.608295,0.032227356,0.11059239,-0.31943792,0.26234445,0.103898995,0.08092039,0.2175193,-0.08015527,0.8314,-0.13780755,0.22471721,0.21977867,-0.21579975,0.07498709,-0.18079558,0.0007279831,-0.3456061,0.2663412,-0.25190073,-0.04203699,0.33459097,0.37642056,0.34174892,0.16522297,0.4817482,0.0112516815,-0.011650433,0.08440858,0.3756754,0.3639886,-0.07489863,-0.3556505,-0.1350786,0.1266266
-0.05188802,0.35000464,-0.07387762,0.09864673,0.21665785,-0.8388608,-0.022686139,0.7539381,-0.15934817,-0.5004417,-0.08410698,-0.667662,-0.13384603,0.020712122,0.2552889,-0.45277342,0.28216362,-0.4508372,0.09238728,-0.69084364,-0.096570835,0.092173904,0.44033638,-0.1320429,-0.017174503,0.0494629,-0.32993603,-0.18338512,-0.09801177,0.13157244,0.3140827,-0.02826878,0.21855845,-0.4417767,-0.22292069,0.11209381,-0.14539103,-0.3888438,-0.10168642,-0.4821216,-0.103645794,-0.3235701,0.2331181,-0.31318253,0.036803186,-0.0056868964,-0.41321537,0.14293815,0.13405885,0.33893257,0.09128253,-0.32151455,-0.19778734,-0.14696127,0.014211791,0.26393297,0.3049386,-0.24338645,-0.22181022,0.5333202,0.117061906,0.3909308,-0.10211643,0.09204198,-0.17453739,0.55442554,0.008162581,0.1579885,-0.32163832,0.42392087,-0.08360263,-0.04880448,0.2870492,-0.14592329,0.65567994,0.019034823,0.2363842,0.066910096,-0.31244627,-0.067763135,-0.112674735,0.16450769,-0.38714558,0.4042267,-0.26369148,0.1188962,0.099483274,0.3077652,0.28480393,0.28057808,0.7264611,-0.07240726,-0.055212103,0.0056409445,0.53315705,0.3284246,0.0513339,-0.4904979,-0.15739258,0.060708646
-0.0626176,0.06668769,-0.040594902,0.17411123,0.063660495,-0.5741183,0.09296697,0.7024065,-0.25776643,-0.25631833,-0.11395704,-0.41495946,-0.120971896,0.20753999,0.2756856,-0.34545234,0.2472145,-0.4566946,-0.009814036,-0.6189768,0.12578477,0.15366215,0.2101882,-0.13118626,-0.010044589,-0.13486922,-0.23798689,-0.38091204,-0.20759206,0.2567735,0.33769745,0.0662275,0.11919332,-0.4869014,-0.09450613,0.36615926,-0.14274243,-0.3532023,-0.13467719,-0.61916494,0.019300787,-0.4077005,0.076613516,0.03924711,-0.015749482,-0.061595716,-0.33658782,0.15977623,0.15607391,0.21737121,0.114309475,-0.28895187,-0.102326415,-0.02780572,-0.0020017156,0.16922961,0.09837256,-0.17833637,-0.19935377,0.22851138,0.11496497,0.3729224,-0.14078523,-0.09113571,-0.24094924,0.43319526,0.10683416,0.2988687,-0.47563082,0.3208521,-0.122396894,-0.04237413,0.19132878,-0.14482464,0.55234087,0.23301516,-0.017686678,0.13632493,-0.309658,-0.014287845,-0.046789847,0.13154645,-0.1583324,0.4563667,-0.060682714,0.11145984,0.029549526,0.25947297,0.27616313,0.16347139,0.6714201,0.078346655,-0.07159889,0.07245322,0.47511774,0.31396842,0.040555723,-0.44482484,-0.044991527,0.020514732
-0.48858607,0.4731951,0.15602922,0.115678266,0.21290591,-0.3809025,0.19135031,0.8130239,-0.116895445,-0.20255071,-0.4355514,-0.25357327,-0.0298524,0.6156897,0.46673313,-0.6937543,-0.394735,-0.07043183,-0.20973487,-0.64655256,0.5244782,0.02662862,0.3638029,0.3239523,0.033408668,-0.289018,-0.36202875,-0.3545651,0.12541196,0.6094672,0.32176757,-0.08764931,0.20012929,-0.4355278,0.2960283,0.7215625,0.20123366,-0.15045707,0.25441512,-0.64171034,-0.05966063,-0.30465958,0.07862327,0.33468598,0.20852767,-0.1306688,-0.41352624,0.39510715,0.5456314,-0.025738783,0.15109576,-0.10969927,-0.08779905,-0.3563993,-0.33179086,0.43058679,-0.0043855775,-0.47237936,-0.12449698,0.091496855,0.17410134,0.020376543,-0.06390201,-0.17794272,-0.8180219,0.1447705,0.5633364,0.9867051,-0.7297048,1.080669,-0.24460773,0.0049645444,0.15288833,-0.07483331,0.35353923,0.47931835,0.1284437,-0.049252283,-0.4192533,-0.11733365,-0.021149803,-0.22650632,-0.22101462,0.49778038,0.056191795,0.018839827,-0.3065649,-0.00032195798,0.292196,0.2652041,0.81673753,-0.11947766,0.09431949,-0.105991095,0.34877357,0.4187339,0.24335799,-0.370485,-0.23814513,0.1655432
-0.20809351,0.15547426,-0.09579592,0.06171491,0.32795647,-0.70605016,0.118115835,0.8380275,-0.082631014,-0.47493535,0.001440466,-0.36174342,-0.13957591,0.14768182,0.51844877,-0.43211496,0.20013975,-0.3781896,-0.00036596743,-0.7956273,0.23820467,-0.04461268,0.41001472,-0.09885951,0.3389994,-0.16729833,-0.42951736,-0.18781123,0.1353351,0.34272078,0.123084925,0.046101592,0.051492374,-0.6317707,0.052999485,0.3112985,0.28335977,-0.43645823,0.3880757,-0.60429764,-0.1456589,-0.39142793,0.36853716,0.03814919,0.1421312,0.0044755065,-0.36010653,0.5395002,0.30848297,0.10194001,0.12246833,-0.14465588,-0.1899909,-0.08599577,-0.16573125,0.32874057,0.16787112,-0.24578913,-0.13420583,0.4623234,0.029098514,0.501596,0.025502365,-0.07817989,-0.40524378,0.46119067,0.25012735,0.5586101,-0.40783855,0.49696308,-0.43145582,-0.19892709,0.115527675,-0.09727148,0.43570754,0.21199256,0.04287878,0.12432945,-0.39000863,-0.060574982,-0.01456132,0.23461227,-0.47265777,0.55731016,0.120719634,0.29718027,-0.1360553,0.17543052,0.30566806,0.3478893,0.8457706,-0.030319756,0.07911644,0.022265099,0.6838497,0.57947797,0.2674445,-0.6976264,-0.062685855,-0.06618922
-0.1631558,0.35459548,-0.01716272,0.35145345,-0.061715793,-0.70497084,0.1549041,0.91720074,-0.11714404,-0.363521,-0.42081398,-0.5944462,0.22146459,0.42140093,0.18455775,-0.7050463,0.008887985,-0.45733365,0.19590859,-0.5197643,0.10750423,0.17695706,0.3280476,0.14876251,-0.031899277,-0.2000125,-0.44730395,-0.1931272,-0.22875392,0.17484327,0.44028765,0.097200416,0.16589588,-0.32994193,-0.13112219,0.69966245,-0.18793517,-0.4159588,-0.3008599,-0.6062742,-0.2781219,-0.37170595,-0.0034649028,-0.25030452,0.18211508,0.015314676,-0.32243964,0.033552963,0.16563474,0.12757684,-0.050743636,-0.26872182,-0.28450242,-0.06357474,-0.05251857,0.47282216,0.041905336,-0.40311983,-0.061933197,0.17015028,0.3084708,0.09029491,-0.13829085,0.06543246,-0.21159297,0.24528448,-0.06895153,0.31124532,-0.3174001,0.61428595,0.10561719,0.03722469,0.27792197,0.015543486,0.52703226,0.1039768,-0.1025352,-0.28337535,-0.2737952,-0.08310501,-0.010424384,-0.01701556,-0.29746616,0.34633356,-0.050561763,-0.06381601,0.054109953,-0.026947675,0.4148177,0.09489476,0.82782906,-0.027305573,-0.2832895,0.04127025,0.31265852,0.41947678,0.041005902,-0.49062487,-0.24975227,-0.041741617
0.42300367,-0.062041894,-0.08133029,0.2587733,-0.19605434,-0.40042597,1.1292299,0.2800326,-1.2843106,-0.09527465,-1.1720396,0.17566264,0.60741174,0.98624957,-0.30976054,-0.33577287,0.28002518,-0.48965934,0.85362816,-0.5780563,0.5082043,0.62956405,-0.01583542,0.28293908,-0.6550262,-0.4937741,0.12098495,-0.85227495,-1.1831639,0.46830973,1.2065436,-0.3573989,0.7114648,-1.1953186,0.3564403,2.053927,-0.54820454,-0.6605556,-0.98920524,-0.89665264,0.13141613,-0.86658543,-0.41221878,0.56766576,0.04241095,-0.070777535,0.2991229,-0.34307078,0.042405024,-0.054019097,-0.17427811,-0.53506714,-0.5681892,-0.24204028,0.19429663,0.6079204,-0.69858545,-0.27196094,-0.39717832,-1.3979717,1.4819435,0.14779446,-0.24515532,0.31789958,0.055338465,0.17267798,-0.06754396,0.13834815,-0.38826603,0.5969479,0.43019593,0.23935029,0.009685469,0.15166193,0.9011528,0.42032453,-0.92589396,0.7019499,-0.6133451,0.75944966,0.30186465,-0.46344042,-0.056583304,0.41827485,0.41008112,-0.08869129,0.5476664,0.40630734,0.28008664,-0.3018449,0.73826516,0.5580313,-0.43422544,0.6478554,0.14514746,0.0075614033,-0.15114771,-0.35298616,-0.21157707,-0.21049994
0.100960635,0.13994558,-0.1225677,0.1833374,0.18675399,-0.9303493,0.042350955,0.7237005,-0.28677967,-0.5906579,-0.11033182,-0.62809145,-0.06596426,0.127012,0.25103363,-0.3538121,0.39011297,-0.5882644,0.2071939,-0.80744094,-0.02730733,0.22208247,0.4898294,-0.1938605,-0.023691164,0.10416904,-0.2784246,-0.18093818,-0.28895518,0.08246419,0.48442975,-0.093305044,0.375469,-0.6209496,-0.29751047,0.22212045,-0.18741134,-0.38188288,-0.3003459,-0.39381692,-0.04989233,-0.4373826,0.16004746,-0.29874584,-0.016086882,-0.011659796,-0.38169748,0.0421362,0.16482335,0.3776056,0.090369105,-0.3701013,-0.26431772,-0.03036394,0.029383672,0.19914174,0.19293365,-0.27050737,-0.2777088,0.28975475,0.24740167,0.37108797,-0.048902523,0.23862788,-0.04207976,0.6779584,-0.10237589,-0.0043510892,-0.29254624,0.29794267,0.069014855,0.064486556,0.23075746,-0.13338718,0.8582835,-0.095389105,0.14063177,0.18384618,-0.17472094,0.034940343,-0.14803208,0.112346806,-0.47860378,0.37788105,-0.33579946,0.05995161,0.22527638,0.31260186,0.29864115,0.23034313,0.7112519,-0.025874358,-0.13003205,0.103824995,0.5978182,0.2602913,0.00601499,-0.44176418,-0.21769059,0.057402786
-0.94148755,1.5650725,0.53361535,1.0687839,-0.12490497,-1.0756428,0.7598017,0.8978432,0.11486375,-1.2298533,-0.7930953,-0.9703152,0.8106001,0.83238745,0.052754864,-1.599548,-0.44194278,-0.22888811,0.23019147,-0.21516185,0.20998864,0.37353283,0.17419167,1.309173,-0.34895548,-0.3828682,-0.39226183,-0.13376483,0.24865022,0.15693915,0.26960984,-0.23327433,0.047205582,0.055206753,0.4178418,2.6078706,0.49503836,-1.1153789,-0.38154972,-0.9620382,-0.4474617,-0.3326051,-0.3855376,-0.01943576,0.8470825,0.6308013,-0.6092682,0.041681916,0.592591,-0.2874739,-0.046418045,-0.0883693,-0.43569976,-0.13994084,-0.49652115,1.3091773,-0.057663158,-0.79977393,0.6329067,-0.24043515,0.56319314,-0.52610546,0.30256632,-0.101922944,-0.5138834,-0.60383105,-0.16281594,1.277589,-0.7422185,1.0557836,0.20994093,0.16126768,0.41802838,0.7541117,0.03893443,0.3009462,-0.5717964,-0.6779483,-0.89654547,-0.34224218,-0.13614123,-0.14637034,0.30093673,0.37176338,0.15884845,0.0020676556,0.13604961,-0.21790615,1.038016,0.4060504,0.6507854,-0.114902526,-0.5901973,0.10602576,0.11345931,0.7874787,0.04102567,-0.6957025,-0.6533263,0.010287375
-0.1011752,0.21003744,-0.02923284,0.2963632,0.12727548,-0.58797234,0.40223294,0.5432641,-0.37537995,-0.34811312,-0.27265215,-0.40835485,0.16741283,0.3491303,0.16670711,-0.41985977,0.24101973,-0.45378858,0.060666926,-0.55301666,0.2919855,0.28721422,0.13247737,0.040458422,-0.12643148,-0.18987826,-0.09713274,-0.48469865,-0.3011784,0.16636384,0.44687378,-0.012177423,0.26902756,-0.41413692,-0.047397874,0.85093534,-0.10404952,-0.5296731,-0.358301,-0.6472545,-0.005747408,-0.3639489,-0.037062157,0.111514255,0.013452163,-0.024498902,-0.2883949,-0.011557275,0.0712318,0.24740617,0.0716024,-0.29447243,-0.3038022,-0.040510315,-0.036445294,0.4137057,0.051526975,-0.05232161,-0.24243934,-0.016199883,0.32535884,0.1284048,-0.124544114,-0.02017079,-0.17644453,0.27275446,0.022009645,0.24742775,-0.46217144,0.5036306,-0.063645974,0.108141266,0.26042974,-0.043930583,0.5759511,0.099523306,-0.045827106,0.10328057,-0.3349081,0.053201545,-0.0066982456,0.047776986,-0.14476787,0.33517534,-0.13158852,0.0751595,0.1631994,0.21574321,0.38974068,0.15672447,0.58260834,0.1687397,-0.21908148,0.26198563,0.40383244,0.40663797,-0.046243746,-0.4828879,-0.019198045,0.048211087
0.09690891,0.24711785,-0.13263038,0.08812099,0.11121793,-0.96115863,-0.18248016,0.80752516,-0.10749124,-0.5460754,0.0026179045,-0.93311507,-0.24987997,-0.15137763,0.23655841,-0.40861318,0.37586156,-0.6332378,0.13590124,-0.6989836,-0.38697305,0.11941489,0.45381686,-0.2206129,0.029367039,0.21596958,-0.46275973,-0.13531886,-0.12478077,0.030200647,0.3695583,0.0010382585,0.30855653,-0.38823533,-0.40788782,-0.14614521,-0.31575418,-0.39341557,-0.20270495,-0.560476,-0.1669749,-0.33880496,0.28454113,-0.44421175,-0.069730766,0.055031165,-0.5550403,0.1630664,0.14518759,0.38037828,0.1471189,-0.34650815,-0.049249128,-0.10980828,0.22191954,0.05477108,0.33216712,-0.3338355,-0.2833775,0.7111427,0.06392673,0.54173124,-0.16631901,0.15253356,0.015665138,0.7958982,-0.06204137,-0.012321578,-0.24907777,0.13457759,-0.15176174,-0.07028961,0.3784609,-0.17523104,0.7694999,-0.057302836,0.14795154,0.018761506,-0.119629405,-0.023778697,-0.13598727,0.36545464,-0.59411144,0.3700623,-0.3038009,0.117116235,0.2731672,0.38952354,0.32502836,0.35299006,0.7162248,-0.1171437,0.058956735,-0.12264882,0.7526465,0.35479468,-0.07784356,-0.5515701,-0.074733034,-0.035400383
-0.13254681,0.013594245,0.06282139,0.39648715,-0.29445636,-0.15289189,0.6905207,0.43697232,-0.582107,-0.07317066,-0.5586508,-0.068163924,0.13205163,0.82786924,0.013043578,-0.40244666,-0.043565076,-0.2842374,0.1658222,-0.43328977,0.70363927,0.29465443,-0.04977718,0.123170115,-0.36965254,-0.5735817,0.06329596,-0.93612033,-0.48384333,0.42070892,0.65328985,0.07380757,0.29883173,-0.42522484,0.25410506,1.4242585,-0.12752388,-0.47556895,-0.5749315,-0.9790299,0.057819467,-0.28488126,-0.1509512,0.6453227,-0.035252806,-0.19265686,-0.025990145,-0.12072605,0.14356238,0.11615593,0.113545254,-0.27409244,-0.28758985,-0.1728633,0.025414402,0.5128584,-0.37553456,-0.11631404,-0.3333628,-0.64248174,0.51535344,-0.010971056,-0.26718602,-0.30405277,-0.3837739,-0.0667949,0.17077409,0.57992965,-0.81024015,0.6356391,-0.032146707,0.12788902,0.21313699,0.03091921,0.4895058,0.7055907,-0.48885474,0.24429713,-0.517491,0.33110106,0.27147293,-0.20377232,0.09479944,0.41510013,0.27617836,-0.039096244,0.1295811,0.06676067,0.378752,0.054383412,0.60872716,0.34314486,-0.43657562,0.47076303,0.21359313,0.35481712,-0.057465494,-0.47500315,0.18275449,-0.06938505
-0.022702698,-0.11353171,0.0576955,0.26060358,-0.19931133,-0.3855134,0.20169063,0.7345474,-0.3692375,-0.21804312,-0.23892368,-0.26118815,-0.10080201,0.4968036,0.027719304,-0.24381652,0.3433203,-0.53263646,-0.011540579,-0.53545254,0.34804982,0.24745423,0.015824761,-0.26358107,-0.112990625,-0.32885826,-0.16014794,-0.56667644,-0.2867162,0.20515613,0.45429853,0.19618717,0.005133942,-0.41475102,-0.013855469,0.62064487,-0.21099867,-0.42994392,-0.34019983,-0.6834832,0.036573526,-0.40368617,-0.057220493,0.104809135,0.04001881,-0.19451044,-0.21525647,0.018240696,-0.0026028967,0.29024687,0.10051583,-0.22004499,-0.3308012,-0.07804228,0.0059187165,0.1941021,0.021129414,-0.17635593,-0.24823079,-0.103902146,0.2992635,0.20030993,-0.17477775,-0.24099578,-0.32764533,0.25252068,0.115949705,0.27413508,-0.49971846,0.42173257,0.0052888757,-0.028035853,0.21512122,-0.017995067,0.5390041,0.45096755,-0.27686888,0.15294649,-0.38409868,0.1798954,0.078213185,0.06124309,-0.12270752,0.6368527,0.104558475,0.13102973,-0.027990885,0.23082924,0.22403811,0.08218663,0.81229216,0.25220975,-0.10116568,0.23072994,0.45749044,0.30192354,0.08369562,-0.4345302,0.11752875,0.08955568
-0.040931474,0.13052844,-0.00083605846,0.25062874,-0.15460856,-0.92220545,0.061930854,0.83435655,-0.19848266,-0.6049017,-0.18047686,-0.60640216,-0.10054046,0.24056232,0.09168384,-0.4534661,0.11174402,-0.50141686,0.09175956,-0.4720908,-0.16516125,0.28377426,0.24737474,0.093919076,0.05186993,0.01956907,-0.51598287,-0.18268716,-0.36773095,0.25794756,0.3780499,-0.04365511,0.28780258,-0.55915076,-0.17877997,0.5460823,-0.15660252,-0.40622225,-0.18818933,-0.5907201,-0.31994903,-0.36061063,0.05886358,-0.33564946,0.21139342,0.17719962,-0.43209434,0.11910146,0.34560823,0.23739758,0.16063766,-0.23729269,-0.17114505,-0.07939808,-0.005792737,0.1439285,0.024592178,-0.4373296,-0.11145431,0.29632786,0.10217045,0.22529133,-0.09755858,-0.08747294,-0.02106044,0.4735959,-0.12670551,0.20078406,-0.3461124,0.17582014,0.0571622,0.12613103,0.38477388,0.02740909,0.642516,0.12578915,-0.16376865,-0.09870143,-0.28100997,0.0039988356,-0.16196729,0.1669099,-0.41983807,0.54298913,-0.13162711,-0.13083398,0.27620775,0.20239231,0.39089355,0.26651853,0.7339537,-0.089121364,-0.017659444,-0.08515732,0.574852,0.39563465,-0.021208065,-0.49710748,-0.21442322,-0.07983452
0.029534498,0.20739101,-0.14670055,0.06634979,0.18044372,-0.7411678,0.029743347,0.7725967,-0.14004952,-0.4398087,-0.10086827,-0.54049295,-0.16832449,0.034874547,0.29788896,-0.3727568,0.47753635,-0.55355525,-0.019940931,-0.6838683,0.024375701,0.1605168,0.33584255,-0.255933,0.031359054,-0.02848096,-0.2024754,-0.35069266,-0.15117948,0.20246656,0.39039722,0.06527569,0.21825184,-0.43606704,-0.27079508,0.1647281,-0.102487326,-0.4897679,-0.16429892,-0.54583544,0.016687814,-0.3185501,0.24371235,-0.21551554,-0.00062477414,-0.11815085,-0.38067755,0.13415635,-0.017877033,0.36146158,0.17289776,-0.29159626,-0.3202765,-0.10018668,0.023716887,0.23337916,0.28167152,-0.040449474,-0.35456115,0.405817,0.1315911,0.45981273,-0.17982623,0.023369959,-0.2131027,0.6084015,0.1142023,0.076054715,-0.41801205,0.41422206,-0.120307274,-0.09146176,0.28957772,-0.18054609,0.6350813,0.11222995,0.16231851,0.1775724,-0.33500445,0.063263394,-0.108216114,0.22410804,-0.36220592,0.49857804,-0.23571438,0.18423633,0.067753226,0.36561653,0.23027691,0.25095487,0.76853114,0.06860882,0.010356767,0.07046046,0.61268544,0.37568977,0.08826873,-0.5125796,-0.051690243,0.08335664
-0.20714365,0.434936,0.09736368,0.27031744,0.03816726,-0.7646819,0.009775197,0.7786332,-0.08939592,-0.5621048,-0.15081397,-0.6255507,-0.005323621,0.14401428,0.2566366,-0.61590046,0.16996296,-0.39708707,-0.011031394,-0.69690126,-0.024764314,0.08993264,0.3687071,-0.054114636,0.06651963,-0.009537521,-0.39151797,-0.10768784,-0.041034386,0.26292306,0.19773477,0.05787455,0.061520997,-0.32572344,-0.16654834,0.27014318,-0.09368168,-0.40845466,-0.07338511,-0.54683024,-0.10533326,-0.25597605,0.07354256,-0.2559487,0.19137852,-0.021234455,-0.41055572,0.16790612,0.28396097,0.20555247,0.10174791,-0.2598302,-0.0819231,-0.074222066,-0.1351663,0.35380277,0.17003,-0.32286525,-0.14624089,0.4710645,0.11044457,0.22625843,-0.10066236,0.012706097,-0.29333028,0.39890844,0.035795074,0.48015472,-0.41515318,0.45381114,-0.092379704,0.007741997,0.31799114,-0.11246428,0.4552937,0.20096791,0.15544847,-0.06412891,-0.33277833,-0.19175088,-0.13834856,0.15018006,-0.29426083,0.4444375,-0.13767043,0.073278114,0.0449418,0.2190871,0.38744724,0.21002156,0.7512749,-0.16873059,-0.1314044,-0.010964111,0.5055067,0.41400504,0.1157813,-0.5069937,-0.14923528,0.0564296
-0.722769,0.75433236,0.168396,0.3983695,0.37529293,-0.9350135,0.24334374,0.7365297,-0.3985473,-0.5427171,-0.031506445,-0.7517289,0.272664,0.15343775,0.3980102,-1.0293872,0.09272609,-0.39739475,-0.2867346,-0.61683816,0.26482818,0.15156497,0.10033189,0.4776687,0.09792998,0.019293262,-0.4829368,-0.37680048,0.32750127,0.45558622,0.08670237,0.0060374504,-0.0044301474,-0.67275333,0.13865422,0.6292353,0.15704441,-0.44864103,0.45572573,-0.64635223,-0.042392943,-0.788394,0.091332,-0.0733105,-0.09850962,0.031650998,-1.015008,0.46978688,0.44038656,0.5423949,0.09568792,-0.18070534,-0.016233977,-0.29183355,-0.48184592,0.4310478,0.6860219,0.1296836,-0.022245359,0.78512204,-0.22554182,0.1456068,-0.1613848,-0.2694167,-0.6994673,0.39216402,0.18186338,0.8065254,-0.38586482,0.8545935,-0.42580968,-0.22036897,0.51940244,-0.20078729,0.32697508,-0.18646914,0.8330882,-0.13298899,-0.39326683,-0.1359295,-0.17961697,-0.033946157,0.023765255,0.32663044,-0.35893553,-0.18586563,-0.3704992,0.22347002,0.40295157,0.42885527,0.6778051,-0.41527718,0.14367613,-0.23099875,0.054756764,0.8890374,0.0756694,-0.55436367,0.08883505,0.63101393
-0.015540904,0.24735783,-0.104158856,0.11297846,0.24846338,-0.6948014,0.12430427,0.69270635,-0.3088693,-0.3513716,-0.05430335,-0.43158022,-0.016050735,0.11668414,0.27241945,-0.4034661,0.32247078,-0.48451978,-0.046629284,-0.719376,0.10358652,0.16572712,0.33872473,-0.098747745,0.026234914,-0.065532595,-0.20500249,-0.31630364,-0.18172039,0.17590652,0.3486831,-0.03582636,0.24919264,-0.5064458,-0.13465162,0.28191733,-0.15626122,-0.32350883,-0.07699129,-0.4628426,0.03746503,-0.39173847,0.15807678,-0.19004212,-0.0067016366,-0.033246256,-0.32801223,0.1300181,0.1565859,0.28668043,0.06105985,-0.29806483,-0.2371142,-0.09890435,0.013539477,0.19786787,0.21438567,-0.12595575,-0.31517383,0.33307636,0.20400438,0.33035713,-0.13086863,0.01971357,-0.2290671,0.51732945,0.12208602,0.15847577,-0.37413788,0.42378467,-0.0765516,-0.058949575,0.18188772,-0.15531333,0.6571234,-6.616359e-05,0.18707158,0.13957544,-0.29823345,0.012846311,-0.063149765,0.11902878,-0.3457327,0.41984838,-0.2271697,0.09049614,0.066182144,0.30523658,0.26619396,0.2287991,0.68031126,0.0035516203,-0.070155345,0.018514624,0.4837213,0.31024453,0.06378604,-0.48119926,-0.101276174,0.08217815
0.16935374,-0.29708043,-0.12515222,0.29272196,-0.25026464,-0.17778532,0.42099997,0.6516228,-0.5714708,0.07379547,-0.36118835,0.009567018,0.06115875,0.7082553,-0.12300675,-0.18912928,0.39825562,-0.68295246,-0.08182171,-0.5150996,0.42559004,0.4501574,-0.2861715,-0.3097564,-0.28470045,-0.4974859,0.03045523,-0.81819296,-0.6149711,0.20582451,0.6385173,0.28854144,0.1610518,-0.4093108,0.10311043,1.0308946,-0.4039612,-0.5596691,-0.63848466,-0.79204375,0.12934925,-0.3848287,-0.1802072,0.21755059,-0.014369579,-0.12459836,-0.099927805,-0.1225782,-0.16551152,0.15853263,0.060976036,-0.37010142,-0.4839576,-0.011958533,0.2143989,0.23682529,-0.2549877,0.09406572,-0.47244585,-0.2650543,0.50811356,0.12824118,-0.38256505,-0.38145348,-0.24136235,0.04447644,0.20311059,0.064429104,-0.47828355,0.40772414,-0.06610547,-0.056207754,0.17754193,-0.064423636,0.5979061,0.56827676,-0.56312805,0.20208359,-0.36142167,0.27328172,0.27884153,0.025044413,-0.18972172,0.7430862,0.086039625,0.059239704,0.23850276,0.30251947,0.1672775,0.08803211,0.83483136,0.69803107,-0.16174927,0.4263118,0.537619,0.26602602,-0.07485942,-0.67505497,0.51232976,0.05756664
-0.14774266,0.2324069,-0.00014338628,0.2816707,-0.034910627,-0.6166564,0.18730406,0.65054667,-0.295451,-0.376828,-0.3078957,-0.43538842,0.020558516,0.38097632,0.21029505,-0.49639678,0.05290961,-0.3896095,0.03773791,-0.54028124,0.105511256,0.22016731,0.19540447,0.10505345,-0.047680575,-0.10157377,-0.33452043,-0.32826453,-0.21321967,0.2805827,0.4219081,-0.046346907,0.20910765,-0.44143015,-0.04168026,0.67130184,-0.091937214,-0.29055497,-0.18017729,-0.5883151,-0.10801356,-0.3515952,-0.0013663375,0.011028239,0.08833307,-0.0031564415,-0.3526999,0.13532495,0.21723863,0.18415411,0.053732716,-0.271604,-0.18176712,-0.08927542,-0.07085886,0.28947136,0.011487193,-0.32755363,-0.13745765,0.071716264,0.22752479,0.18042979,-0.107039675,-0.0062339273,-0.25045365,0.31265807,0.037996545,0.39226362,-0.40457317,0.4627796,0.0026249306,0.093131155,0.23487866,-0.031036437,0.5401782,0.19937101,-0.05659575,0.04782293,-0.27832794,0.041363478,-0.011927774,-0.02699626,-0.1852451,0.4261473,-0.07760189,-0.04491495,0.053350072,0.17189607,0.3648719,0.18647976,0.68704754,0.03754919,-0.10573962,0.020122256,0.41331413,0.34768483,0.0043205167,-0.45373595,-0.1041457,0.06812027
-0.8596915,0.6797043,0.63641596,0.6954932,-0.06850482,-0.47695392,0.6819091,0.71267027,-0.18123953,-0.5489009,-0.3076845,-0.53562707,0.28655007,0.8631417,0.38418296,-0.84363693,-0.28420633,-0.124589436,-0.12746663,-0.39319524,0.65318114,0.19181982,-0.044493668,0.87839,-0.0665607,-0.5063378,-0.2542124,-0.60608083,0.32920617,0.6383398,0.07180404,-0.17359431,-0.2344946,-0.14777979,0.5308904,1.7913392,0.52717364,-0.6687261,0.049378887,-0.9009272,-0.124751076,-0.5525922,-0.15026209,0.6329934,0.22609505,0.27513355,-0.5963133,0.23593411,0.56103694,0.1869835,0.12721318,-0.2318001,-0.120863385,-0.24352461,-0.5198825,0.5486592,0.107233696,-0.44406626,0.32487488,0.043065593,-0.06201509,-0.15466039,0.13898371,-0.48455364,-0.7596133,-0.3407414,0.35131335,1.4222556,-0.7135314,0.9573731,-0.171357,-0.000111061425,0.32507464,0.13691227,-0.032905627,0.5046709,-0.1850353,-0.32555184,-0.4711351,-0.07086771,-0.115913495,-0.011037054,0.46820754,0.34975109,0.35777164,0.13871196,-0.41886678,-0.031370144,0.6900576,0.24136575,0.51505274,-0.09994559,-0.08173546,0.16186577,0.20890026,0.88675475,0.1550878,-0.5451907,-0.41360155,0.18943086
-0.067993075,0.20384601,0.035125766,0.27147055,-0.06890166,-0.87117696,0.1801266,0.82849205,-0.35836115,-0.61428726,-0.21778846,-0.58714247,-0.05306208,0.31495154,0.13221286,-0.5143619,0.24571298,-0.4325087,0.11328406,-0.587447,-0.06169619,0.17655054,0.41112354,0.12174703,0.049425177,-0.023701163,-0.46930605,-0.274148,-0.22552785,0.20602556,0.41243896,-0.111148275,0.22126861,-0.65994054,-0.1751747,0.62578785,-0.13508515,-0.32898977,-0.14493497,-0.50991297,-0.024495771,-0.5324691,0.022545451,-0.21990868,0.13845727,0.08630809,-0.43029168,0.09169212,0.24359025,0.21293005,0.05869861,-0.35276994,-0.16550939,0.052393626,-0.14172368,0.08540351,0.05058749,-0.55317724,-0.13648225,0.08062891,0.33524135,0.18417354,0.07748009,0.06950144,-0.11708526,0.55865794,-0.08825412,0.28906104,-0.41897896,0.24313869,0.16404082,0.18656316,0.252795,0.06120167,0.7235484,0.053390734,0.008903422,0.08862485,-0.22017531,0.050760504,-0.10013874,-0.06468303,-0.26164368,0.3930707,-0.113647975,-0.048240904,0.2549802,0.2109571,0.347103,0.18956397,0.7638965,-0.14563191,-0.13524285,-0.033328135,0.40073952,0.35964003,0.0020572073,-0.43865162,-0.30469093,0.09433104
-0.050761763,0.11284221,-0.059024908,0.24737364,-0.056938365,-0.6137058,-0.008875078,0.8227337,-0.15798946,-0.3245972,-0.32757533,-0.3363341,-0.043938156,0.36435792,0.10622234,-0.4473922,0.3123994,-0.507734,0.05798466,-0.5272346,0.1184796,0.17630368,0.124603935,-0.04903619,-0.044237033,-0.20426807,-0.32433617,-0.3412574,-0.25547954,0.15676606,0.501327,0.08833154,0.15506895,-0.37691334,-0.11148893,0.47037843,-0.19264883,-0.38038346,-0.2579963,-0.54043436,-0.20481163,-0.29883155,0.006155154,-0.16012888,0.11449806,-0.030349778,-0.23309982,0.027936172,-0.0072060735,0.33077797,0.058269747,-0.20018047,-0.3169024,-0.15669201,-0.0045153773,0.2650427,0.03866498,-0.30553064,-0.18255487,0.12282008,0.23751587,0.17547034,-0.14145759,-0.073196,-0.2666056,0.32806358,-0.0345922,0.17407717,-0.40313542,0.47276273,0.07796722,-0.010872484,0.2517756,-0.04116069,0.53967166,0.18144925,-0.19762255,0.017604358,-0.35955152,0.119862,0.02411193,0.08340964,-0.29107016,0.5457315,-0.020037888,0.03598164,0.0924018,0.1969391,0.25021058,0.09699904,0.8290203,0.054129817,-0.023230508,0.13385849,0.45346072,0.30619365,0.077301905,-0.45690605,-0.12905006,0.02473631
-0.09726021,0.25390592,-0.037621897,0.23895636,0.07903013,-0.7484705,0.11174337,0.77277213,-0.27166554,-0.42536888,-0.16789512,-0.5269684,0.007460406,0.16894622,0.2249457,-0.46324736,0.25827056,-0.5046017,0.028846888,-0.6154621,0.036068495,0.15756251,0.3002421,-0.032256834,0.0379775,-0.046872158,-0.29714745,-0.2839698,-0.18667197,0.23142584,0.36773315,0.028321894,0.16249678,-0.44123554,-0.16832687,0.47069865,-0.16290869,-0.41856053,-0.1246564,-0.61072344,-0.08783764,-0.38581666,0.06291384,-0.19032587,0.051121615,-0.02950137,-0.34713346,0.15008788,0.15574433,0.24314435,0.080929115,-0.29835868,-0.17643504,-0.06859011,-0.03583397,0.27286637,0.17444116,-0.21311913,-0.21347883,0.28042975,0.15272507,0.32301912,-0.15107697,-0.008522516,-0.22965853,0.45836136,0.028056974,0.27951312,-0.35713226,0.41003984,-0.061430853,0.003925534,0.26354313,-0.11050124,0.6161265,0.12694964,0.055764038,0.038753323,-0.27515227,-0.007793396,-0.062680654,0.1435236,-0.24076927,0.43783006,-0.14257412,0.026674217,0.022296883,0.26183808,0.3229817,0.18502165,0.7445082,0.0127384085,-0.069811285,0.021272127,0.53585416,0.41714507,0.06829131,-0.49697965,-0.13509859,0.033272956
-0.27469838,0.122173905,0.08528927,0.30679524,0.07444925,-0.3478714,0.4475947,0.53638476,-0.464777,-0.1838189,-0.30237278,-0.3234637,0.15990369,0.4534087,0.2384253,-0.44917184,0.15889664,-0.29940104,-0.08669856,-0.5931258,0.5042466,0.2375825,0.08772309,0.12357152,-0.09273026,-0.32712528,-0.016586611,-0.669948,-0.21604931,0.3399096,0.32551798,0.06234577,0.13373646,-0.37196502,0.08389,0.92795485,0.024239665,-0.5072635,-0.26673335,-0.7068056,0.06001507,-0.39257282,-0.06540452,0.38761684,-0.07669746,-0.1948196,-0.26928413,0.026171248,0.11058897,0.2788999,0.124927156,-0.21464285,-0.2182136,-0.08772864,-0.18424149,0.3874506,0.060299467,0.054963067,-0.2875069,-0.11989776,0.16644391,0.12377138,-0.18855524,-0.17875348,-0.47378987,0.1582995,0.1536883,0.53877944,-0.53321624,0.60878444,-0.10773556,0.08450383,0.19041412,-0.08971821,0.46982655,0.32704696,0.11432226,0.16989692,-0.42751724,0.09142034,0.03356057,-0.04060379,0.15508622,0.26597008,-0.03810275,0.09536665,-0.08895448,0.16852167,0.3566607,0.103011034,0.5132365,0.14206879,-0.22680226,0.2921051,0.32161868,0.52501184,0.028305039,-0.4263687,0.00975517,0.11840957
-0.3327435,0.5466881,0.10272471,0.39874545,0.11365809,-0.7382307,0.08668512,0.7959087,-0.039338857,-0.59430367,-0.29317853,-0.6913811,0.28316993,0.383947,0.26918882,-0.8456313,0.015731493,-0.36192665,0.13738298,-0.5719239,0.18426667,0.07663336,0.36789468,0.27919185,0.10500763,-0.16161548,-0.35924795,-0.035759415,0.12539871,0.21180138,0.20759158,0.018950751,0.025608359,-0.32380515,-0.0048882207,0.65764576,0.03153271,-0.4810356,0.016160952,-0.5101418,-0.24637675,-0.40642437,0.07710825,-0.23468895,0.21306854,0.10741852,-0.46798384,0.14197502,0.31874186,0.1822959,0.011028281,-0.25469258,-0.20165719,-0.09094828,-0.20298624,0.5357348,0.20046952,-0.31307325,0.017950578,0.29708147,0.20791854,0.063367754,0.02014016,0.07628047,-0.38354185,0.16285469,0.06372941,0.5478919,-0.360429,0.7264717,0.044964068,-0.022933614,0.2667069,-0.022108722,0.4497002,-0.0006393286,0.13014701,-0.21239842,-0.3653994,-0.17343406,-0.10011456,0.025388945,-0.214602,0.34045896,-0.118365675,0.07520923,-0.10545755,-0.030585833,0.40489236,0.1833235,0.6994196,-0.20867789,-0.14819558,0.06340351,0.28943694,0.48330465,0.098970965,-0.48854738,-0.35042197,0.092527494
-0.11125507,0.2254237,-0.15015577,0.33254868,-0.17453966,-0.87353134,-0.17370327,1.1908077,0.015288174,-0.6116,-0.3745523,-0.6979851,-0.091654696,0.4833663,0.1505801,-0.7081115,0.16547678,-0.5332394,0.25238252,-0.44802088,-0.15324146,0.02928289,0.5282631,0.36459222,-0.054545,0.09095808,-0.62931436,-0.00308454,-0.14395693,0.24857436,0.4417615,-0.029381441,0.3967281,-0.43521482,-0.32586914,0.29522732,-0.14397103,-0.5093019,-0.4848363,-0.5222018,-0.656352,-0.2712723,-0.11567342,-0.37435296,0.43709642,0.26026887,-0.23525976,0.020886855,0.21684779,0.25789878,-0.0043859817,-0.24992268,-0.36455488,0.14062198,-0.15034758,0.4185506,-0.22709318,-0.6740636,0.07931751,0.2630111,0.3309435,-0.019212106,-0.033859976,0.16976848,0.10945266,0.38981184,-0.33044663,0.280984,-0.2797155,0.47276887,0.27781966,-0.049661897,0.30493057,0.044438675,0.5985508,0.12659638,-0.41834956,-0.30881783,-0.08392157,0.03365942,-0.017855177,-0.0066676764,-0.66339636,0.33570814,-0.07245885,-0.2630326,0.3180396,-0.073530495,0.2975893,0.021084646,1.1470871,-0.25827345,-0.1001751,0.054790698,0.56195116,0.41975254,0.11946084,-0.64457846,-0.44174892,-0.11063158
-0.049206443,0.29947844,-0.09665963,0.21777439,-0.008080091,-0.9313319,-0.20382184,0.90895295,0.029596452,-0.599871,-0.16580701,-0.77988595,-0.24116917,0.103239566,0.18228799,-0.5464366,0.30355367,-0.62140065,0.18980575,-0.55299896,-0.22958708,0.06284622,0.45404077,-0.10923608,0.11636825,0.048786156,-0.5379344,-0.13100758,-0.11675401,0.14004438,0.35775238,0.063038275,0.18613593,-0.40018374,-0.34125584,0.051563043,-0.21362594,-0.45052737,-0.18433534,-0.5756629,-0.31602907,-0.2665046,0.23056749,-0.4761421,0.16383527,0.054462723,-0.4420456,0.12526391,0.12906727,0.38075963,0.1638364,-0.28499183,-0.23061618,-0.037077487,0.019463155,0.23893438,0.1872444,-0.46479172,-0.108418815,0.6189601,0.13346986,0.3875596,-0.122594655,0.027874501,-0.015895741,0.5483306,-0.12408892,0.14341046,-0.31085652,0.25089464,-0.027360626,-0.07281629,0.39687312,-0.12051757,0.63152796,0.06389204,-0.053685967,-0.12625435,-0.24851112,-0.055617396,-0.07552943,0.2480126,-0.52486485,0.51060975,-0.10558974,0.088151276,0.15133928,0.25054818,0.27576888,0.22537385,0.8823758,-0.18284312,-0.030896649,-0.006216312,0.67921907,0.43868572,0.05749733,-0.5658444,-0.25367302,-0.058440574
-0.86868817,0.8863746,-0.18892094,0.6917899,0.44491315,-0.790081,0.21536845,0.80155724,-0.38475844,-0.4275738,-0.468279,-0.5366769,0.6901094,0.16136049,0.1597529,-1.5637662,0.1594823,-0.110433035,-0.58809537,-0.6644363,0.03730335,0.41640076,-0.18680805,0.40562382,0.23492828,-0.38831484,0.18763049,-0.295581,0.38661054,0.5591061,0.30694467,-0.15231259,0.13928062,-0.0986832,0.25596595,1.1432494,0.1999366,-0.98696786,0.15772724,-0.95936847,0.02087225,-0.7105861,0.07285033,-0.50875175,0.1344353,0.17246842,-0.95085067,0.3865713,-0.11456227,0.40064698,-0.14566773,-0.10665519,-0.44588178,-0.27581355,-0.48450834,0.99134296,0.6381594,0.50326705,-0.042392466,0.780891,-0.06028475,0.066701844,-0.32187682,-0.18238495,-0.9184519,0.1812375,0.2068489,0.783563,-0.21082589,1.2836072,-0.5311358,0.099342,0.5380517,-0.15316689,-0.09969281,-0.3451132,0.9382509,-0.25454518,-0.80384326,-0.47244018,-0.061647657,-0.044490974,0.20711714,0.16527309,-0.40949368,-0.41997394,-0.37807047,0.07092596,0.66531956,0.5398283,0.30439737,-0.10756819,-0.14389843,-0.17795645,0.116814815,1.191499,-0.22458532,-0.80005586,0.19375794,0.7383813
0.0041921553,0.046365645,-0.046720583,0.15598895,0.14177486,-0.5245442,0.21641329,0.6896036,-0.37942263,-0.27715203,-0.22847742,-0.31754074,0.04383762,0.36478096,0.0698248,-0.3306653,0.43548143,-0.5773989,0.078296505,-0.6737483,0.2640988,0.29449326,0.12465137,-0.28271863,-0.05718637,-0.26584226,-0.05962841,-0.4815826,-0.35561246,0.13842647,0.46629852,0.17873912,0.13392861,-0.50685865,-0.15089689,0.61314726,-0.37348968,-0.4307069,-0.34547454,-0.6078386,0.08254114,-0.4701548,0.019992413,-0.12590595,-0.088158876,-0.08931926,-0.29152447,-0.026152503,-0.10611959,0.38558283,0.12384561,-0.30946565,-0.4313114,-0.055853836,0.018505184,0.24551105,0.09170322,0.024807865,-0.39797956,0.1518978,0.36571914,0.23815657,-0.2308652,-0.07125329,-0.26205996,0.35655332,0.120416574,0.06381675,-0.38190538,0.4083544,-0.04474925,0.07908312,0.1989147,-0.14274946,0.71256983,0.11410736,-0.018581098,0.18269071,-0.36664897,0.122372754,-0.021600641,0.17038265,-0.3025974,0.530793,-0.16548528,0.1116523,0.17975749,0.30188847,0.28544647,0.11161158,0.72922194,0.17245297,-0.14436346,0.22521497,0.54604715,0.38586807,0.0055109034,-0.55766755,0.09870412,0.13901563
-0.3654844,0.52902365,0.11034147,0.30417767,0.08297005,-0.89376783,-0.02271952,0.84906965,-0.09963679,-0.61809754,-0.14887945,-0.7323709,-0.012332435,0.044354886,0.3686309,-0.77324235,0.122544356,-0.2769117,-0.055896714,-0.65865505,0.007654873,-0.021631332,0.52913296,0.15816061,0.28864273,-0.055499617,-0.423284,-0.10872839,0.19320828,0.4251494,0.05621156,-0.058159817,0.007687817,-0.48483998,-0.056437753,0.29224172,0.03261111,-0.38761127,0.27113408,-0.6030297,-0.17913474,-0.41694084,0.19141735,-0.24036749,0.1417719,0.10450555,-0.6095307,0.2908888,0.32448217,0.27084905,0.16361436,-0.30434808,0.051281307,-0.13977222,-0.29861358,0.18633533,0.290597,-0.37874714,0.004947823,0.6409069,-0.014660692,0.22624813,0.015080088,-0.076354034,-0.44171295,0.4458063,0.16653939,0.6611607,-0.49889228,0.52955914,-0.22223838,-0.025098363,0.29420117,-0.18085043,0.39316443,0.12207658,0.2512383,-0.02010635,-0.37082216,-0.21954812,-0.16461623,0.12545204,-0.21920809,0.2967761,-0.033148184,0.052193902,-0.046627473,0.12400555,0.34987658,0.24844171,0.7042091,-0.4015295,-0.045081932,-0.11463583,0.4968327,0.54079026,0.18248577,-0.45455045,-0.26807538,0.12107724
-0.06483492,0.22837877,-0.048364777,0.16720547,0.20662536,-0.6725324,0.1893625,0.7666389,-0.3010958,-0.34943962,-0.26478803,-0.4959291,0.110465765,0.3026683,0.20900127,-0.48957667,0.2773109,-0.42861405,-0.03913742,-0.6621605,0.22903332,0.1868885,0.27931786,-0.05184665,0.053376283,-0.16227336,-0.17866355,-0.33764404,-0.2273919,0.2115435,0.43192482,-0.0017384967,0.22736573,-0.5458201,-0.13086839,0.56678337,-0.12336655,-0.3480406,-0.15278651,-0.50657445,0.043348115,-0.45597598,0.03602229,-0.09605074,0.06483268,-0.028666329,-0.383852,0.060434293,0.07181876,0.22144519,0.06882046,-0.29788822,-0.27676883,-0.07448993,-0.102487564,0.25987864,0.102316,-0.14685044,-0.3100974,0.16197057,0.3238524,0.1471395,-0.12732488,0.04058284,-0.26072493,0.40975904,0.13801473,0.24729826,-0.45578715,0.5391581,-0.0022301876,0.06719736,0.23276548,-0.091616735,0.6760759,0.09054721,0.14862475,0.06606526,-0.31053805,-0.011120897,-0.07602594,-0.030661896,-0.32886842,0.39341542,-0.21244898,0.024901284,0.118019715,0.22619267,0.31090346,0.123497106,0.72649044,0.08318189,-0.057273574,0.098935716,0.46511978,0.35423923,0.057675306,-0.4069293,-0.12905799,0.13359298
-0.32083988,0.38618135,0.080313616,0.32475987,0.19348328,-0.6089562,0.24682838,0.6844298,-0.19119121,-0.4681472,-0.24887584,-0.500173,0.17684025,0.31975472,0.26663134,-0.6175938,0.19260612,-0.37392542,-0.06008347,-0.67200637,0.31157073,0.17597997,0.20021105,0.11530488,0.032105144,-0.19053279,-0.15133995,-0.33403847,0.03762522,0.25861984,0.27990377,0.025304826,0.04034014,-0.3542394,0.03845541,0.74760437,0.028189652,-0.50668484,-0.07236405,-0.6467614,-0.03442569,-0.39856085,0.02766808,-0.006366671,0.036254372,0.022094632,-0.43678677,0.18500988,0.1650794,0.27264076,0.07409178,-0.25998423,-0.26760614,-0.11775651,-0.20604987,0.42094344,0.2681301,-0.07674163,-0.19626327,0.24682981,0.12862872,0.16460814,-0.12864333,-0.08726844,-0.4505379,0.23782216,0.17070445,0.49630055,-0.43774635,0.71961063,-0.15236771,0.023878224,0.26191694,-0.07536315,0.43570992,0.11611146,0.19440253,0.016773269,-0.45743406,-0.08226635,-0.06854552,0.08078509,-0.07801782,0.3639396,-0.1889878,0.1500727,-0.090177365,0.17848739,0.40134257,0.2363282,0.6702329,0.027105965,-0.122858055,0.14973576,0.34894672,0.49324808,0.097685084,-0.53717065,-0.10449426,0.21703574
0.2553653,0.26078317,-0.26720586,-0.06842741,0.5147232,-1.0129596,0.03252817,0.7800443,-0.3327268,-0.50312597,-0.027021637,-0.57165223,-0.12081329,-0.06607131,0.38130796,-0.28148147,0.562128,-0.4862683,-0.017869048,-0.930354,-0.023855455,0.13193408,0.50370026,-0.2822458,0.026426032,0.11976371,-0.22902553,-0.2951465,-0.17209528,0.18370245,0.4591015,-0.21700609,0.44318557,-0.7720706,-0.294176,0.044631153,-0.09029074,-0.347259,-0.05386257,-0.4096702,0.048097417,-0.5247382,0.36962247,-0.25084224,-0.12932757,-0.027329788,-0.5134512,0.17240806,0.13945302,0.39515635,0.1580032,-0.34991318,-0.29744032,-0.20061225,0.02622288,0.15952966,0.3159312,-0.09243341,-0.44564813,0.5011377,0.15090755,0.54804254,-0.07063626,0.27879456,-0.03827321,1.0070221,0.09705045,-0.070820265,-0.4050898,0.33585063,-0.14676258,-0.14278631,0.16648111,-0.2320187,0.95283306,-0.25569046,0.4211372,0.3927665,-0.19665307,0.06615693,-0.19298905,0.22501937,-0.6275044,0.39221627,-0.401808,0.13861129,0.30962083,0.4976561,0.28508583,0.3128008,0.67687666,-0.05882324,0.09978468,-0.040814433,0.62450635,0.27709484,0.03578327,-0.4767164,-0.19621295,0.08717235
-0.19979596,0.22576524,0.0028350528,0.10775679,0.1172209,-0.6340419,0.017833343,0.7586988,-0.20923454,-0.3947011,-0.106282495,-0.40520185,-0.17694642,0.19887659,0.392907,-0.38099328,0.16009992,-0.38389918,-0.091453604,-0.67937624,0.17673717,0.09358295,0.40254453,0.0038331125,0.14424023,-0.056663334,-0.357165,-0.3309882,0.028450785,0.32533246,0.27815685,-0.027039852,0.19992775,-0.5130674,-0.018105207,0.31473342,0.011228803,-0.27496505,0.032817684,-0.5393475,-0.049452465,-0.36354107,0.17311941,-0.014535649,0.029027471,-0.12720719,-0.37056372,0.2835507,0.21457508,0.23691821,0.12073901,-0.23515756,-0.1951421,-0.14441188,-0.078538194,0.2562854,0.1898747,-0.23298432,-0.18125919,0.3736357,0.076227695,0.34458515,-0.0592508,-0.046981767,-0.3501271,0.39250413,0.2052053,0.499261,-0.4022887,0.49193874,-0.20629667,-0.087430686,0.13296194,-0.134291,0.5302989,0.2414223,0.102491654,0.10000927,-0.31858498,-0.00882592,-0.059154097,0.06979703,-0.2934069,0.5090136,-0.078357935,0.15980329,-0.06935766,0.2550598,0.29237717,0.24992482,0.7633812,-0.04121963,0.02403563,0.009075019,0.52021545,0.43667892,0.16960666,-0.5001777,-0.13501588,0.1257517
0.0601639,-0.0064222366,-0.08045423,0.27369097,-0.26572785,-0.55239385,0.47827783,0.4870943,-0.67295134,-0.30068448,-0.41171637,-0.17215033,-0.0014324612,0.4359752,-0.0073555885,-0.2494771,0.13481966,-0.39081132,0.2329836,-0.41952395,0.14462285,0.29535034,0.13748802,0.12719125,-0.1435127,-0.18810283,-0.2909077,-0.56571406,-0.6038938,0.35588422,0.5450892,-0.18118633,0.3619837,-0.79025847,0.059394322,1.0006665,-0.16708893,-0.2170642,-0.3860911,-0.57869494,-0.026088674,-0.40908158,-0.110651225,0.40063238,0.07422959,-0.06210086,-0.10773322,-0.04671716,0.18647936,0.05711051,0.066970944,-0.29929903,-0.08268305,0.028763056,0.042191256,0.04699331,-0.37145853,-0.47513667,-0.2272803,-0.502382,0.53757346,0.11664477,-0.04293247,0.0058138757,-0.10025331,0.38330042,-0.05716573,0.33827025,-0.4763945,0.14501522,0.1744537,0.19533597,0.15635751,0.10384881,0.68450034,0.42752162,-0.45670012,0.35694042,-0.22645138,0.29022068,0.09588771,-0.14759351,-0.06728485,0.3944965,0.17250079,-0.13310945,0.2932817,0.1925513,0.31218612,0.046654947,0.60356575,0.16899098,-0.24791625,0.10727297,0.27255785,0.15597306,-0.035039056,-0.24126045,-0.12329915,-0.1087271
-0.09092039,0.2765681,-0.063859366,0.1641753,0.09952729,-0.7545397,0.059630584,0.8016476,-0.19516064,-0.47689724,-0.17584573,-0.5624972,-0.037550315,0.20223118,0.22709133,-0.5238315,0.25643408,-0.501403,0.009232463,-0.63102293,0.054175753,0.13067797,0.36491305,-0.04257829,0.09305482,-0.10591118,-0.35785165,-0.3182348,-0.11253176,0.2616913,0.3081189,0.0336008,0.1719105,-0.42726874,-0.14757942,0.36383307,-0.16602208,-0.4211101,-0.08564073,-0.6273199,-0.121927954,-0.39033112,0.15305297,-0.22952591,0.04771897,-0.045040775,-0.38006166,0.18850553,0.14403674,0.26337174,0.08098465,-0.27099723,-0.20923218,-0.138248,-0.0033404848,0.19085865,0.20674422,-0.24916539,-0.19917701,0.41700876,0.14849928,0.30248907,-0.14846508,-0.03953351,-0.28443885,0.48073563,0.056144368,0.29693767,-0.43206158,0.45438507,-0.10414656,-0.0693354,0.26901627,-0.15974924,0.5726319,0.13078819,0.08611038,0.007366402,-0.3654979,-0.010335723,-0.074648686,0.14553243,-0.3598349,0.5183955,-0.12155146,0.0902179,0.07881441,0.25056404,0.31603578,0.18722795,0.79736,-0.09071721,-0.023239186,0.025716208,0.57580113,0.4428956,0.09186916,-0.53519815,-0.1554543,0.038046755
-0.146024,0.1463039,-0.010314128,0.09437867,0.09889811,-0.6881768,0.08447713,0.7932221,-0.300188,-0.36747104,-0.13107254,-0.474205,-0.10781937,0.14645518,0.31686485,-0.38723966,0.16635667,-0.40881163,-0.080009006,-0.5767388,0.11404015,0.10304565,0.37883353,-0.069886684,0.08921602,-0.054970328,-0.33120617,-0.31930503,-0.15669489,0.28577605,0.25229287,-0.03667275,0.19217774,-0.52588063,-0.13406554,0.405321,-0.06716937,-0.2637438,0.0224986,-0.5040277,-0.022987654,-0.4101966,0.08427967,-0.076362155,0.007880705,-0.06961186,-0.3533412,0.21072029,0.21334004,0.21485056,0.119132794,-0.26141968,-0.09609305,-0.033509854,-0.12934242,0.18233263,0.13743311,-0.27452108,-0.20246662,0.22556348,0.12104102,0.29571176,-0.07914992,-0.06743076,-0.2127465,0.5085452,0.09855865,0.31614068,-0.3878192,0.34820655,-0.060115654,0.03615477,0.21829823,-0.080567665,0.5750605,0.12199404,0.10793571,0.052505434,-0.25478998,0.033797007,-0.1158919,0.06550754,-0.2750335,0.36087745,-0.14297098,0.03857867,0.0247585,0.25150877,0.28392532,0.16906074,0.6583241,-0.036203388,-0.09141353,-0.0049646455,0.5439443,0.4233291,0.1325019,-0.41478032,-0.18892403,0.08002966
-0.14552797,0.24510819,0.023276571,0.14163895,0.10873802,-0.7291156,0.043232795,0.7739476,-0.18530874,-0.42767385,-0.11027697,-0.5352432,-0.13007109,0.11813988,0.32309493,-0.40606207,0.15851341,-0.43711668,0.0054096673,-0.5964083,0.075755216,0.08799494,0.36840734,-0.011229422,0.11129388,-0.034638416,-0.36392528,-0.29275376,-0.04693638,0.28708246,0.246149,-0.03895652,0.18720068,-0.4685266,-0.13869204,0.334313,0.0014396006,-0.352022,-0.012986537,-0.5314575,-0.14513232,-0.33608845,0.15601009,-0.026383622,0.012682763,-0.060545873,-0.37006766,0.20720384,0.16593096,0.27956492,0.13401754,-0.2236399,-0.1440636,-0.12972115,-0.052676633,0.23111296,0.1990439,-0.26962215,-0.15260133,0.37542796,0.04904461,0.3404529,-0.07712363,-0.043600645,-0.2804729,0.41558984,0.08644901,0.3917126,-0.39916915,0.44588223,-0.1579541,-0.056623228,0.25461277,-0.15079312,0.5226657,0.18193796,0.09458545,0.011989347,-0.32241595,-0.00718553,-0.07988485,0.11747118,-0.27363986,0.43458042,-0.07806018,0.09796546,-0.05086909,0.23187056,0.30963087,0.2165006,0.7022974,-0.060671154,-0.0025870367,0.015313482,0.5443689,0.45965347,0.1598547,-0.4475319,-0.17591758,0.006960502
0.37823516,-0.082462035,-0.17867322,0.2028596,-0.06344983,-0.5345552,0.6504463,0.28513998,-0.9392026,-0.041485377,-0.49168608,-0.12161846,0.1702186,0.5494602,0.10233047,-0.04781217,0.19939786,-0.44547832,0.27310714,-0.55184096,0.2508602,0.36453828,0.11902096,0.034408946,-0.4555221,-0.3091197,-0.078019604,-0.79255253,-1.0309243,0.065718055,0.8276447,-0.17786011,0.8181698,-0.8803999,-0.028503736,1.2652253,-0.3588064,-0.11537286,-0.7939773,-0.7575914,0.044706695,-0.37102446,-0.26001298,0.5270858,-0.2174821,-0.007158075,0.04923942,-0.24393402,-0.07509587,0.21202938,-0.0073318277,-0.4344583,-0.28806758,-0.076978065,0.36037242,0.18917364,-0.57487714,-0.18799837,-0.4391601,-0.66176,0.78176737,0.12077538,-0.1930831,0.08242177,0.29663485,0.3427418,-0.1061778,-0.003956294,-0.572115,0.09537813,0.013944221,0.25577074,0.10438887,0.084642105,0.9132438,0.3432659,-0.6824488,0.34753454,-0.3261248,0.4573086,0.26839894,-0.16265494,-0.3750619,0.30949262,0.017545685,-0.24913342,0.7767781,0.26401958,0.3604064,-0.0018888696,0.5191653,0.4187463,-0.39600688,0.38468605,0.42073324,0.077321246,-0.35579035,-0.3461649,0.12073061,-0.36115536
-0.14564192,0.28481305,-0.06385502,0.068338744,0.22095528,-0.6803791,0.062263668,0.80286777,-0.13534963,-0.46029705,-0.111120835,-0.49317974,-0.097659275,0.1856,0.3635588,-0.48839024,0.2956365,-0.39753255,-0.11928321,-0.74354553,0.19519223,0.040580105,0.32315946,-0.071255416,0.110293895,-0.12087394,-0.22303106,-0.34177437,0.075114265,0.2544276,0.27960834,0.025898816,0.1198083,-0.45048502,-0.10613326,0.29930863,0.07904411,-0.4637911,0.086029455,-0.5478293,-0.04289088,-0.39333677,0.19654915,-0.11860134,0.06037118,-0.094486825,-0.3628937,0.24526702,0.16651356,0.3321667,0.12663974,-0.22005726,-0.25510138,-0.117355585,-0.116853334,0.38320553,0.27692866,-0.09242197,-0.19317953,0.3854302,0.1411221,0.33646995,-0.12631507,-0.03316409,-0.39126578,0.4538352,0.15746918,0.37582994,-0.4420523,0.59701604,-0.19243498,-0.09076106,0.22490223,-0.14529207,0.49886712,0.17046669,0.21292235,0.12546168,-0.37786913,0.00232882,-0.058352422,0.09827506,-0.29896525,0.48345265,-0.12636945,0.23700745,-0.13943076,0.25114956,0.3107261,0.23930767,0.76945895,-0.023573862,0.0038326485,0.062133323,0.5263254,0.43220523,0.2137286,-0.535248,-0.13342622,0.07424052
-0.21030006,0.26406798,0.04455057,0.2472822,-0.014395527,-0.57072115,0.3148252,0.68792915,-0.33027768,-0.3136512,-0.3217123,-0.34628597,0.09426828,0.40166637,0.21575098,-0.49834844,-0.010391549,-0.3523785,-0.009586751,-0.5258598,0.17655616,0.20828848,0.1734996,0.09859026,-0.051736612,-0.16277975,-0.29862395,-0.39489517,-0.24423711,0.30589515,0.37032247,-0.0037678315,0.21767412,-0.44093964,0.06324531,0.8249662,-0.07206406,-0.30859897,-0.10652565,-0.6658143,-0.058868222,-0.3627076,-0.070173524,0.07718062,0.12845644,0.0050930367,-0.33933374,0.12518862,0.24322383,0.041544784,0.072159156,-0.27674264,-0.1587071,-0.1458654,-0.13828017,0.30941942,-0.039256405,-0.3199081,-0.17947586,0.05236065,0.28664225,0.12127914,-0.10408387,-0.0676007,-0.3449484,0.26009163,0.12337429,0.49080285,-0.48901153,0.5379309,-0.040538598,0.08767315,0.21301326,-0.013368956,0.48692316,0.28753087,-0.11543787,-0.00018921663,-0.37504095,0.035347506,0.012660921,-0.04506429,-0.19165537,0.4168646,-0.0099749975,-0.012422694,0.05525162,0.12783933,0.35193366,0.17508577,0.6899544,0.066748515,-0.11474885,0.03624472,0.41265756,0.37212166,0.04516879,-0.46940026,-0.10710677,0.07933576
0.33759367,-0.2407192,-0.24422987,0.32144183,-0.38830936,-0.42525697,0.3332413,0.74018157,-0.64044505,-0.0627016,-0.40662313,-0.08227104,0.12292419,0.6711713,-0.24547137,-0.27063018,0.3240901,-0.8139005,-0.062942564,-0.47341198,0.061823066,0.5396541,-0.34393495,-0.17073329,-0.3633032,-0.13058008,-0.2665286,-0.57221675,-0.7616983,0.23323321,0.61118543,0.1209229,0.44854861,-0.5155674,0.04426969,0.95400614,-0.4130395,-0.4755281,-0.74231374,-0.6687564,-0.086438775,-0.4446927,-0.10128201,0.056921545,0.09447589,0.26380947,-0.18834047,-0.20449531,-0.11905743,0.05618338,0.017022097,-0.46398738,-0.5219443,0.014778367,0.23872387,0.11179398,-0.45548636,-0.118299805,-0.4305418,-0.030890794,0.5085745,-0.015971493,-0.39111578,-0.20981489,0.120088436,0.2464547,0.023812866,-0.07623197,-0.34048247,0.18572125,0.090179905,0.0011455239,0.26789188,0.029043928,0.7588874,0.30877522,-0.81734127,0.14570685,-0.14338773,0.20765898,0.20295472,0.17807072,-0.53872955,0.67816204,0.013560327,-0.09526919,0.6589104,0.26802382,0.20018251,0.12859476,0.8978752,0.69275415,-0.232776,0.20867658,0.5341527,0.16725618,-0.1362264,-0.8952951,0.40936422,0.015459752
0.11250432,-0.15597291,-0.08964654,0.28091893,-0.32292572,-0.38436735,0.31830025,0.6635264,-0.49975708,-0.07316717,-0.4451572,-0.16328973,-0.04243307,0.636729,0.022303991,-0.25681317,0.25661248,-0.5368583,0.07405206,-0.43196398,0.20056033,0.34803116,-0.09647089,-0.049013525,-0.24080263,-0.34735054,-0.17547353,-0.66342753,-0.6241116,0.263254,0.63476306,0.074992634,0.29003397,-0.53756,0.02064408,1.0282787,-0.24882461,-0.41900462,-0.5970303,-0.7688842,-0.028282648,-0.3702291,-0.11898665,0.28376096,0.04183744,-0.03950487,-0.13637373,-0.06176803,-0.06785285,0.14700086,0.05913685,-0.29201108,-0.3489893,-0.023459965,0.13801174,0.21836175,-0.30760336,-0.18304384,-0.2531542,-0.30035603,0.48984677,0.114144176,-0.24753454,-0.1726443,-0.06955802,0.16402733,0.007671086,0.15577199,-0.50223786,0.3029826,0.0145874955,0.047879785,0.22965854,0.006873422,0.6251687,0.53644466,-0.6046902,0.17453128,-0.29077095,0.26059568,0.19011422,-0.04630004,-0.19831184,0.5564537,0.10286856,-0.070090204,0.28079724,0.206243,0.2516152,0.051573403,0.77787036,0.47262344,-0.18749113,0.20849031,0.47970554,0.26677895,-0.08890412,-0.55490524,0.2085306,-0.088371545
-0.052573107,0.068056405,-0.03477002,0.13571033,0.065756135,-0.61820316,0.1952066,0.6539844,-0.3235198,-0.23774958,-0.1091002,-0.3576965,-0.10397066,0.1809699,0.24491233,-0.32302994,0.22068447,-0.45872122,-0.029204613,-0.5843662,0.09940623,0.22805284,0.1730779,-0.07593664,0.023630211,-0.13097091,-0.2384297,-0.39322042,-0.21209937,0.27813062,0.30939606,0.009649696,0.18737134,-0.4380167,-0.045233622,0.5465689,-0.09103631,-0.37809244,-0.11835153,-0.6407414,0.049284387,-0.36608478,0.050261114,-0.007181336,-0.04882415,-0.079669476,-0.33763954,0.196935,0.11694389,0.17829664,0.15356776,-0.27192667,-0.17832087,-0.11235591,0.036035575,0.24056156,0.13836713,-0.08342819,-0.2833802,0.19958505,0.07620664,0.38260642,-0.2024399,-0.15904129,-0.2674525,0.39576444,0.15508363,0.32121718,-0.37991396,0.37885863,-0.22476038,-0.018467857,0.20463012,-0.06932171,0.47939834,0.24256468,-0.015619379,0.14655545,-0.326916,0.060669597,-0.058063395,0.13720267,-0.1633626,0.492762,-0.10067642,0.11669358,0.0014255157,0.30308783,0.29733717,0.25594875,0.64094496,0.13261792,-0.098735705,0.020321345,0.4851113,0.43287542,0.0475393,-0.47487333,0.08202914,0.061303373
-0.07340206,0.2971938,-0.09285053,0.16021849,0.26880902,-0.8602365,0.11051871,0.82247895,-0.22237471,-0.5204714,-0.09529322,-0.53447676,-0.00267917,0.0921971,0.32625613,-0.4958355,0.3691088,-0.4575755,-0.0697588,-0.7451978,0.16894023,0.15059158,0.3968321,-0.0825539,0.0962771,-0.020213908,-0.2645856,-0.26117805,-0.006616647,0.27355415,0.3526791,-0.09133393,0.15864405,-0.663562,-0.16165619,0.28554532,0.026639156,-0.34769344,0.03351519,-0.39140147,-0.017607277,-0.4659215,0.18422621,-0.20639348,0.09076773,-0.03759528,-0.45955428,0.23054606,0.18690284,0.3448206,0.109981954,-0.3541897,-0.23952205,-0.12448667,-0.2032636,0.25613722,0.3050658,-0.08814052,-0.2541138,0.39450902,0.13641682,0.27788198,-0.0052918345,0.052013934,-0.29406792,0.6208327,0.10566239,0.27426517,-0.3664217,0.48340023,-0.056282435,-0.0527463,0.27667654,-0.16557747,0.6430209,-0.023206778,0.36693034,0.15902433,-0.27820504,-0.046709694,-0.1845141,0.08455547,-0.34150422,0.37663725,-0.28181106,0.071211286,0.033015143,0.26459512,0.26035494,0.24221015,0.7552586,-0.09012814,-0.015064623,0.018265644,0.47547394,0.3873338,0.15812144,-0.48052755,-0.19289796,0.19581787
0.01887936,0.23765236,-0.084712595,0.24986441,0.1326513,-0.682172,0.44550344,0.53846484,-0.59643996,-0.25740135,-0.28044298,-0.37078097,0.20285727,0.30989218,0.18430665,-0.39156032,0.23519099,-0.45284534,0.18808357,-0.6184203,0.17754205,0.27809176,0.20409025,0.020236045,-0.17844522,-0.08593481,-0.18761098,-0.42146125,-0.34891075,0.2804356,0.49736285,-0.10457157,0.27355543,-0.6215998,0.057593152,0.83146966,-0.1790147,-0.38559315,-0.22950783,-0.69208163,0.08555305,-0.5304523,-0.039379373,0.09687252,-0.04021996,-0.009265224,-0.29940006,0.10446798,0.18558899,0.09723868,0.039276846,-0.37084362,-0.2182446,-0.121671185,-0.017635008,0.33042708,0.04002123,-0.19503237,-0.31358698,-0.047696427,0.34425214,0.25096673,-0.1366115,0.07648749,-0.19347382,0.44108465,0.08572432,0.28156024,-0.36159945,0.466199,-0.03131991,0.013350368,0.15698825,-0.0069788573,0.6738455,0.08246331,-0.029044526,0.2616052,-0.26826602,0.10808057,-0.019776763,0.013146061,-0.18019012,0.30343306,-0.115021914,-0.016119836,0.18212998,0.30354822,0.36895633,0.20064773,0.60659516,0.11134503,-0.21036199,0.09874903,0.32055828,0.3135555,-0.028631276,-0.43199307,-0.04108818,0.068506934
-0.08140665,0.22885631,-0.031278368,0.27315718,0.110693105,-0.67479897,0.13473463,0.73099834,-0.23815231,-0.4122721,-0.24088448,-0.49047598,0.115772724,0.23158863,0.13465208,-0.5277952,0.34377778,-0.4592694,0.07096327,-0.6044815,0.103459924,0.1892188,0.27222756,-0.014398032,0.047335315,-0.11246222,-0.17173673,-0.23708944,-0.1931982,0.14907224,0.33496255,0.0022557238,0.17966743,-0.4807721,-0.143354,0.5052979,-0.17763548,-0.4749004,-0.26335752,-0.49915072,-0.055406056,-0.40992415,0.060074866,-0.18726948,0.1178066,0.025248013,-0.30503324,0.0009967972,0.03638878,0.26552138,0.029754674,-0.30924085,-0.2899974,-0.009538559,-0.08304606,0.2567504,0.11048344,-0.11490549,-0.2128145,0.23585403,0.29197288,0.1784742,-0.09008942,0.032329988,-0.17034425,0.37246314,0.016251752,0.21122438,-0.35136735,0.42590588,0.026233481,0.059815843,0.25255838,-0.09200813,0.59867334,0.028107233,0.06482386,0.02007884,-0.3246533,-0.020612616,-0.080232546,0.0677478,-0.24846482,0.35735625,-0.18578923,0.040332366,0.15492705,0.17741495,0.30388975,0.15036726,0.67480725,-0.010985219,-0.17273286,0.14314401,0.37309623,0.37162256,0.005934618,-0.46100196,-0.18703048,0.06557015
